{"learner":{"attributes":{"best_iteration":"99","best_ntree_limit":"100"},"feature_names":[],"feature_types":[],"gradient_booster":{"model":{"gbtree_model_param":{"num_parallel_tree":"1","num_trees":"100","size_leaf_vector":"0"},"tree_info":[0,0,0,0,0,0,0,0,0,0,0,0,0,0,0,0,0,0,0,0,0,0,0,0,0,0,0,0,0,0,0,0,0,0,0,0,0,0,0,0,0,0,0,0,0,0,0,0,0,0,0,0,0,0,0,0,0,0,0,0,0,0,0,0,0,0,0,0,0,0,0,0,0,0,0,0,0,0,0,0,0,0,0,0,0,0,0,0,0,0,0,0,0,0,0,0,0,0,0,0],"trees":[{"base_weights":[1.5056174E1],"categories":[],"categories_nodes":[],"categories_segments":[],"categories_sizes":[],"default_left":[0],"id":0,"left_children":[-1],"loss_changes":[0E0],"parents":[2147483647],"right_children":[-1],"split_conditions":[4.5168524E0],"split_indices":[0],"split_type":[0],"sum_hessian":[2.16E2],"tree_param":{"num_deleted":"0","num_feature":"13","num_nodes":"1","size_leaf_vector":"0"}},{"base_weights":[1.0560137E1],"categories":[],"categories_nodes":[],"categories_segments":[],"categories_sizes":[],"default_left":[0],"id":1,"left_children":[-1],"loss_changes":[0E0],"parents":[2147483647],"right_children":[-1],"split_conditions":[3.1680412E0],"split_indices":[0],"split_type":[0],"sum_hessian":[2.16E2],"tree_param":{"num_deleted":"0","num_feature":"13","num_nodes":"1","size_leaf_vector":"0"}},{"base_weights":[7.406695E0],"categories":[],"categories_nodes":[],"categories_segments":[],"categories_sizes":[],"default_left":[0],"id":2,"left_children":[-1],"loss_changes":[0E0],"parents":[2147483647],"right_children":[-1],"split_conditions":[2.2220085E0],"split_indices":[0],"split_type":[0],"sum_hessian":[2.16E2],"tree_param":{"num_deleted":"0","num_feature":"13","num_nodes":"1","size_leaf_vector":"0"}},{"base_weights":[5.194926E0,1.5740477E0,3.1832E0,2.0148054E-1,1.3667517E0],"categories":[],"categories_nodes":[],"categories_segments":[],"categories_sizes":[],"default_left":[0,0,0,0,0],"id":3,"left_children":[1,-1,3,-1,-1],"loss_changes":[5.95459E0,0E0,2.4520424E1,0E0,0E0],"parents":[2147483647,0,0,2,2],"right_children":[2,-1,4,-1,-1],"split_conditions":[1.6186394E1,1.5740477E0,1.6140673E1,2.0148054E-1,1.3667517E0],"split_indices":[6,0,9,0,0],"split_type":[0,0,0,0,0],"sum_hessian":[2.16E2,2.09E2,7E0,3E0,4E0],"tree_param":{"num_deleted":"0","num_feature":"13","num_nodes":"5","size_leaf_vector":"0"}},{"base_weights":[3.6509283E0,9.6384275E-1,3.85518E0,3.8905475E0,4.9605635E-1,6.2594783E-1,1.1825727E0],"categories":[],"categories_nodes":[],"categories_segments":[],"categories_sizes":[],"default_left":[0,0,0,0,0,0,0],"id":4,"left_children":[1,-1,3,5,-1,-1,-1],"loss_changes":[7.032715E0,0E0,4.70166E0,4.7473145E0,0E0,0E0,0E0],"parents":[2147483647,0,0,2,2,3,3],"right_children":[2,-1,4,6,-1,-1,-1],"split_conditions":[9.9E1,9.6384275E-1,1.6114658E1,5.3573843E-2,4.9605635E-1,6.2594783E-1,1.1825727E0],"split_indices":[1,0,11,12,0,0,0],"split_type":[0,0,0,0,0,0,0],"sum_hessian":[2.16E2,7.4E1,1.42E2,1.39E2,3E0,5E0,1.34E2],"tree_param":{"num_deleted":"0","num_feature":"13","num_nodes":"7","size_leaf_vector":"0"}},{"base_weights":[2.5707119E0,6.87105E-1,2.7477577E0,2.8091762E0,1.4753324E0,3.798634E-1,8.553315E-1,8.08221E-1,-1.2507677E-1],"categories":[],"categories_nodes":[],"categories_segments":[],"categories_sizes":[],"default_left":[0,0,0,0,0,0,0,0,0],"id":5,"left_children":[1,-1,3,5,7,-1,-1,-1,-1],"loss_changes":[4.4779053E0,0E0,5.8588257E0,4.2178955E0,1.9572514E1,0E0,0E0,0E0,0E0],"parents":[2147483647,0,0,2,2,3,3,4,4],"right_children":[2,-1,4,6,8,-1,-1,-1,-1],"split_conditions":[1.14E2,6.87105E-1,1.6186394E1,5.3573843E-2,1.6040113E1,3.798634E-1,8.553315E-1,8.08221E-1,-1.2507677E-1],"split_indices":[1,0,6,12,7,0,0,0,0],"split_type":[0,0,0,0,0,0,0,0,0],"sum_hessian":[2.16E2,8.9E1,1.27E2,1.2E2,7E0,4E0,1.16E2,4E0,3E0],"tree_param":{"num_deleted":"0","num_feature":"13","num_nodes":"9","size_leaf_vector":"0"}},{"base_weights":[1.811505E0,4.3427393E-1,1.890575E0,5.720227E-1,2.1682407E-1],"categories":[],"categories_nodes":[],"categories_segments":[],"categories_sizes":[],"default_left":[0,0,0,0,0],"id":6,"left_children":[1,-1,3,-1,-1],"loss_changes":[3.5076294E0,0E0,1.9259644E0,0E0,0E0],"parents":[2147483647,0,0,2,2],"right_children":[2,-1,4,-1,-1],"split_conditions":[6.7E1,4.3427393E-1,1.6129223E1,5.720227E-1,2.1682407E-1],"split_indices":[1,0,10,0,0],"split_type":[0,0,0,0,0],"sum_hessian":[2.16E2,4.2E1,1.74E2,1.71E2,3E0],"tree_param":{"num_deleted":"0","num_feature":"13","num_nodes":"5","size_leaf_vector":"0"}},{"base_weights":[1.2736901E0,3.3457822E-1,1.4045123E0,1.446508E0,6.620059E-1,1.5141073E-1,4.4336352E-1,-2.0236295E-1,4.796532E-1],"categories":[],"categories_nodes":[],"categories_segments":[],"categories_sizes":[],"default_left":[0,0,0,0,0,0,0,0,0],"id":7,"left_children":[1,-1,3,5,7,-1,-1,-1,-1],"loss_changes":[2.9311523E0,0E0,2.6283417E0,2.444931E0,1.109553E1,0E0,0E0,0E0,0E0],"parents":[2147483647,0,0,2,2,3,3,4,4],"right_children":[2,-1,4,6,8,-1,-1,-1,-1],"split_conditions":[1.27E2,3.3457822E-1,1.6186394E1,5.3573843E-2,1.6140673E1,1.5141073E-1,4.4336352E-1,-2.0236295E-1,4.796532E-1],"split_indices":[1,0,6,12,9,0,0,0,0],"split_type":[0,0,0,0,0,0,0,0,0],"sum_hessian":[2.16E2,1.02E2,1.14E2,1.07E2,7E0,4E0,1.03E2,3E0,4E0],"tree_param":{"num_deleted":"0","num_feature":"13","num_nodes":"9","size_leaf_vector":"0"}},{"base_weights":[8.9714366E-1,8.0936164E-1,1.0592157E0,8.4906596E-1,-2.4074522E-1,3.3335558E-1,4.9806535E-1,2.00429E-1,2.706053E-1,4.0276673E-1,-2.0461923E-1],"categories":[],"categories_nodes":[],"categories_segments":[],"categories_sizes":[],"default_left":[0,0,0,0,0,0,0,0,0,0,0],"id":8,"left_children":[1,3,5,7,-1,-1,9,-1,-1,-1,-1],"loss_changes":[2.2299805E0,9.960976E0,1.5754318E0,7.581024E-1,0E0,0E0,8.888574E0,0E0,0E0,0E0,0E0],"parents":[2147483647,0,0,1,1,2,2,3,3,6,6],"right_children":[2,4,6,8,-1,-1,10,-1,-1,-1,-1],"split_conditions":[1.603222E1,1.602621E1,1.6186394E1,6E1,-2.4074522E-1,3.3335558E-1,1.6040113E1,2.00429E-1,2.706053E-1,4.0276673E-1,-2.0461923E-1],"split_indices":[6,6,6,1,0,0,7,0,0,0,0],"split_type":[0,0,0,0,0,0,0,0,0,0,0],"sum_hessian":[2.16E2,1.44E2,7.2E1,1.41E2,3E0,6.5E1,7E0,3.5E1,1.06E2,4E0,3E0],"tree_param":{"num_deleted":"0","num_feature":"13","num_nodes":"11","size_leaf_vector":"0"}},{"base_weights":[6.3151115E-1,5.929908E-1,8.8061756E-1,6.218812E-1,-2.7393195E-1,3.2832396E-1,1.0575042E0,6.3738036E-1,-2.185936E-2,1.8606481E-1,-3.558662E-2,2.0423864E-1,1.2079784E0,5.518441E-1,2.3458427E-1,4.021414E-1,1.724255E-1,9.928222E-2,1.6880874E-1],"categories":[],"categories_nodes":[],"categories_segments":[],"categories_sizes":[],"default_left":[0,0,0,0,0,0,0,0,0,0,0,0,0,0,0,0,0,0,0],"id":9,"left_children":[1,3,5,7,-1,9,11,13,-1,-1,-1,-1,15,17,-1,-1,-1,-1,-1],"loss_changes":[1.5600662E0,8.878586E0,2.290514E0,2.070816E0,0E0,1.117251E0,3.1131363E-1,1.8437805E0,0E0,0E0,0E0,0E0,3.202362E-1,9.9040985E-2,0E0,0E0,0E0,0E0,0E0],"parents":[2147483647,0,0,1,1,2,2,3,3,5,5,6,6,7,7,12,12,13,13],"right_children":[2,4,6,8,-1,10,12,14,-1,-1,-1,-1,16,18,-1,-1,-1,-1,-1],"split_conditions":[1.6051086E1,1.6044146E1,-5E-1,1.6135242E1,-2.7393195E-1,6.3471474E-2,1.73E2,1.5885139E1,-2.185936E-2,1.8606481E-1,-3.558662E-2,2.0423864E-1,8.660254E-1,1.4988656E1,2.3458427E-1,4.021414E-1,1.724255E-1,9.928222E-2,1.6880874E-1],"split_indices":[11,11,4,9,0,12,1,7,0,0,0,0,4,6,0,0,0,0,0],"split_type":[0,0,0,0,0,0,0,0,0,0,0,0,0,0,0,0,0,0,0],"sum_hessian":[2.16E2,1.9E2,2.6E1,1.87E2,3E0,7E0,1.9E1,1.83E2,4E0,4E0,3E0,7E0,1.2E1,1.18E2,6.5E1,9E0,3E0,7E0,1.11E2],"tree_param":{"num_deleted":"0","num_feature":"13","num_nodes":"19","size_leaf_vector":"0"}},{"base_weights":[4.4729358E-1,3.9566374E-1,5.672195E-1,4.2828086E-1,-2.8281093E-1,2.2694796E-1,6.271397E-1,4.0851888E-1,2.5232077E-1,1.6687447E-1,-1.4651686E-1,7.9144037E-1,4.6387565E-1,9.299463E-2,1.2934059E-1,1.5046966E-1,9.512526E-1,1.666444E-1,-7.425907E-2,1.0820767E0,1.419567E-1,3.7434402E-1,1.4402527E-1],"categories":[],"categories_nodes":[],"categories_segments":[],"categories_sizes":[],"default_left":[0,0,0,0,0,0,0,0,0,0,0,0,0,0,0,0,0,0,0,0,0,0,0],"id":10,"left_children":[1,3,5,7,-1,9,11,13,-1,-1,-1,15,17,-1,-1,-1,19,-1,-1,21,-1,-1,-1],"loss_changes":[1.1191864E0,7.170061E0,1.1421852E0,8.9635086E-1,0E0,2.8628345E0,1.0545635E0,1.9395256E-1,0E0,0E0,0E0,6.810236E-1,2.0273938E0,0E0,0E0,0E0,4.261074E-1,0E0,0E0,4.9843884E-1,0E0,0E0,0E0],"parents":[2147483647,0,0,1,1,2,2,3,3,5,5,6,6,7,7,11,11,12,12,16,16,19,19],"right_children":[2,4,6,8,-1,10,12,14,-1,-1,-1,16,18,-1,-1,-1,20,-1,-1,22,-1,-1,-1],"split_conditions":[1.6048315E1,1.6061323E1,1.5520393E1,1.6034472E1,-2.8281093E-1,1.5768465E1,3E0,5.5E1,2.5232077E-1,1.6687447E-1,-1.4651686E-1,1.73E2,1.617543E1,9.299463E-2,1.2934059E-1,1.5046966E-1,7.394199E-2,1.666444E-1,-7.425907E-2,2.19E2,1.419567E-1,3.7434402E-1,1.4402527E-1],"split_indices":[9,10,10,10,0,11,2,1,0,0,0,1,6,0,0,0,12,0,0,1,0,0,0],"split_type":[0,0,0,0,0,0,0,0,0,0,0,0,0,0,0,0,0,0,0,0,0,0,0],"sum_hessian":[2.16E2,1.54E2,6.2E1,1.51E2,3E0,1E1,5.2E1,1.46E2,5E0,7E0,3E0,2.4E1,2.8E1,3E1,1.16E2,1E1,1.4E1,2.5E1,3E0,1E1,4E0,7E0,3E0],"tree_param":{"num_deleted":"0","num_feature":"13","num_nodes":"23","size_leaf_vector":"0"}},{"base_weights":[3.1824577E-1,3.0131373E-1,6.0794485E-1,3.4429213E-1,1.3427334E-1,1.17371395E-1,2.6681173E-1,2.7262342E-1,5.5264896E-1,2.4091467E-1,-2.9771063E-1,2.1671425E-1,8.844226E-2,3.115564E-1,4.8696113E-1,-2.7581722E-1,1.0701367E-1,4.0307444E-2,6.828499E-2,2.3955393E-1,4.268223E-1,6.624768E-2,1.3407831E-1],"categories":[],"categories_nodes":[],"categories_segments":[],"categories_sizes":[],"default_left":[0,0,0,0,0,0,0,0,0,0,0,0,0,0,0,0,0,0,0,0,0,0,0],"id":11,"left_children":[1,3,5,7,9,-1,-1,11,13,15,-1,17,-1,-1,19,-1,-1,-1,-1,-1,21,-1,-1],"loss_changes":[8.8124657E-1,1.4398518E0,3.2290363E-1,2.298294E0,5.525527E0,0E0,0E0,8.990669E-2,8.028326E-1,5.8367386E0,0E0,4.4350624E-3,0E0,0E0,3.711586E-1,0E0,0E0,0E0,0E0,0E0,4.2123318E-2,0E0,0E0],"parents":[2147483647,0,0,1,1,2,2,3,3,4,4,7,7,8,8,9,9,11,11,14,14,20,20],"right_children":[2,4,6,8,10,-1,-1,12,14,16,-1,18,-1,-1,20,-1,-1,-1,-1,-1,22,-1,-1],"split_conditions":[1.6172947E1,1.6035582E1,1.6061323E1,1.48E2,1.617543E1,1.17371395E-1,2.6681173E-1,1.5160302E1,5.2817263E-2,5.540789E-2,-2.9771063E-1,1.5030853E1,8.844226E-2,3.115564E-1,1.5972082E1,-2.7581722E-1,1.0701367E-1,4.0307444E-2,6.828499E-2,2.3955393E-1,6.091589E-2,6.624768E-2,1.3407831E-1],"split_indices":[7,8,10,1,6,0,0,7,12,12,0,9,0,0,7,0,0,0,0,0,12,0,0],"split_type":[0,0,0,0,0,0,0,0,0,0,0,0,0,0,0,0,0,0,0,0,0,0,0],"sum_hessian":[2.16E2,2.06E2,1E1,1.63E2,4.3E1,7E0,3E0,1.23E2,4E1,4E1,3E0,3.8E1,8.5E1,3E0,3.7E1,3E0,3.7E1,6E0,3.2E1,4E0,3.3E1,4E0,2.9E1],"tree_param":{"num_deleted":"0","num_feature":"13","num_nodes":"23","size_leaf_vector":"0"}},{"base_weights":[2.2676367E-1,2.1198809E-1,4.8419806E-1,2.2520092E-1,-1.5445891E-1,7.803681E-2,5.7508075E-1,2.4407704E-1,-1.1848271E-2,2.139383E-1,8.797911E-2,1.9863513E-1,3.7714332E-1,8.154116E-2,-2.792267E-1,1.7421561E-1,2.3801899E-1,2.2547036E-1,3.146745E-1,1.8851936E-1,1.3279848E-1,2.1034504E-1,8.7677516E-2,3.922732E-1,6.788989E-2,5.802236E-2,2.7059441E-2,2.2027874E-2,4.197949E-2,4.7721747E-2,7.0087805E-2,5.2775074E-2,1.2556782E-1],"categories":[],"categories_nodes":[],"categories_segments":[],"categories_sizes":[],"default_left":[0,0,0,0,0,0,0,0,0,0,0,0,0,0,0,0,0,0,0,0,0,0,0,0,0,0,0,0,0,0,0,0,0],"id":12,"left_children":[1,3,5,7,-1,-1,9,11,13,-1,-1,15,17,-1,-1,19,21,-1,23,25,27,29,-1,31,-1,-1,-1,-1,-1,-1,-1,-1,-1],"loss_changes":[7.227659E-1,2.1039257E0,7.441902E-2,9.157047E-1,0E0,0E0,6.319332E-2,1.0679283E0,4.4233837E0,0E0,0E0,9.606123E-2,8.6282444E-1,0E0,0E0,2.9467583E-2,1.657772E-2,0E0,1.9925499E-1,1.4277458E-2,1.1601448E-3,8.1961155E-3,0E0,4.5799017E-2,0E0,0E0,0E0,0E0,0E0,0E0,0E0,0E0,0E0],"parents":[2147483647,0,0,1,1,2,2,3,3,6,6,7,7,8,8,11,11,12,12,15,15,16,16,18,18,19,19,20,20,21,21,23,23],"right_children":[2,4,6,8,-1,-1,10,12,14,-1,-1,16,18,-1,-1,20,22,-1,24,26,28,30,-1,32,-1,-1,-1,-1,-1,-1,-1,-1,-1],"split_conditions":[1.6140673E1,1.6186394E1,1.6144533E1,2.23E2,-1.5445891E-1,7.803681E-2,8.660254E-1,1.6020958E1,1.5779734E1,2.139383E-1,8.797911E-2,1.5462167E1,5.540789E-2,8.154116E-2,-2.792267E-1,8.434404E-2,8.660254E-1,2.2547036E-1,-1.8369701E-16,1.02E2,1.5061376E1,1.5720113E1,8.7677516E-2,5.8182236E-2,6.788989E-2,5.802236E-2,2.7059441E-2,2.2027874E-2,4.197949E-2,4.7721747E-2,7.0087805E-2,5.2775074E-2,1.2556782E-1],"split_indices":[9,6,6,1,0,0,4,10,11,0,0,8,12,0,0,12,5,0,5,1,8,7,0,12,0,0,0,0,0,0,0,0,0],"split_type":[0,0,0,0,0,0,0,0,0,0,0,0,0,0,0,0,0,0,0,0,0,0,0,0,0,0,0,0,0,0,0,0,0],"sum_hessian":[2.16E2,2.06E2,1E1,2.03E2,3E0,4E0,6E0,1.88E2,1.5E1,3E0,3E0,1.42E2,4.6E1,1.2E1,3E0,9.1E1,5.1E1,5E0,4.1E1,6.5E1,2.6E1,3.7E1,1.4E1,2E1,2.1E1,6.1E1,4E0,4E0,2.2E1,1.4E1,2.3E1,3E0,1.7E1],"tree_param":{"num_deleted":"0","num_feature":"13","num_nodes":"33","size_leaf_vector":"0"}},{"base_weights":[1.6267036E-1,1.499377E-1,3.874876E-1,1.7567235E-1,-2.8133003E-2,5.870955E-2,2.0225817E-1,1.294317E-1,3.1254566E-1,1.0617367E-1,-2.4808195E-1,1.4407006E-1,-1.17993526E-1,1.9072524E-1,2.7432266E-1,5.020545E-2,-7.246599E-2,1.2072058E-1,1.7970313E-1,2.1731298E-1,5.2832645E-1,1.2754607E-1,6.9138765E-2,2.250323E-1,1.4815897E-1,8.8935524E-2,1.7995368E-1,2.0596498E-1,7.140642E-2,3.183802E-2,4.8655163E-2,2.2911103E-2,1.0674906E-2,7.705812E-2,2.5362456E-2,2.6725389E-2,4.998E-2,3.7208054E-2,6.690801E-2],"categories":[],"categories_nodes":[],"categories_segments":[],"categories_sizes":[],"default_left":[0,0,0,0,0,0,0,0,0,0,0,0,0,0,0,0,0,0,0,0,0,0,0,0,0,0,0,0,0,0,0,0,0,0,0,0,0,0,0],"id":13,"left_children":[1,3,5,7,9,-1,-1,11,13,15,-1,17,-1,-1,19,-1,-1,21,23,25,27,29,31,33,35,-1,37,-1,-1,-1,-1,-1,-1,-1,-1,-1,-1,-1,-1],"loss_changes":[5.630679E-1,9.5353746E-1,4.7291982E-1,1.1051164E0,2.9844966E0,0E0,0E0,1.1050043E0,3.8152313E-1,5.5098057E-1,0E0,8.979559E-2,0E0,0E0,4.9337626E-1,0E0,0E0,2.0755649E-2,3.958285E-2,5.3088784E-2,1.5811789E-1,3.6948085E-2,1.9444898E-4,6.324434E-2,2.1108449E-2,0E0,3.737998E-2,0E0,0E0,0E0,0E0,0E0,0E0,0E0,0E0,0E0,0E0,0E0,0E0],"parents":[2147483647,0,0,1,1,2,2,3,3,4,4,7,7,8,8,9,9,11,11,14,14,17,17,18,18,19,19,20,20,21,21,22,22,23,23,24,24,26,26],"right_children":[2,4,6,8,10,-1,-1,12,14,16,-1,18,-1,-1,20,-1,-1,22,24,26,28,30,32,34,36,-1,38,-1,-1,-1,-1,-1,-1,-1,-1,-1,-1,-1,-1],"split_conditions":[1.6172947E1,1.6076271E1,1.6061323E1,1.6015326E1,2.18E2,5.870955E-2,2.0225817E-1,1.6135345E1,5.2817263E-2,1.6100176E1,-2.4808195E-1,1.539435E1,-1.17993526E-1,1.9072524E-1,1.6156044E1,5.020545E-2,-7.246599E-2,1.5491931E1,1.5550962E1,1.6051468E1,1.6127125E1,1.5150239E1,1.5369979E1,1.6117262E1,1.5730796E1,8.8935524E-2,1.6043482E1,2.0596498E-1,7.140642E-2,3.183802E-2,4.8655163E-2,2.2911103E-2,1.0674906E-2,7.705812E-2,2.5362456E-2,2.6725389E-2,4.998E-2,3.7208054E-2,6.690801E-2],"split_indices":[7,8,10,10,1,0,0,6,12,10,0,8,0,0,6,0,0,9,10,9,9,8,8,6,6,0,11,0,0,0,0,0,0,0,0,0,0,0,0],"split_type":[0,0,0,0,0,0,0,0,0,0,0,0,0,0,0,0,0,0,0,0,0,0,0,0,0,0,0,0,0,0,0,0,0,0,0,0,0,0,0],"sum_hessian":[2.16E2,2.06E2,1E1,1.8E2,2.6E1,7E0,3E0,1.36E2,4.4E1,2.3E1,3E0,1.33E2,3E0,3E0,4.1E1,2E1,3E0,8.3E1,5E1,3.5E1,6E0,7.2E1,1.1E1,1.8E1,3.2E1,9E0,2.6E1,3E0,3E0,4.7E1,2.5E1,8E0,3E0,1.4E1,4E0,9E0,2.3E1,1.3E1,1.3E1],"tree_param":{"num_deleted":"0","num_feature":"13","num_nodes":"39","size_leaf_vector":"0"}},{"base_weights":[1.1768014E-1,1.0523933E-1,3.4109533E-1,1.162249E-1,-1.4440034E-1,6.799629E-2,1.4541107E-1,1.0780989E-1,1.5300687E-1,1.2365897E-1,-8.317381E-2,9.844565E-2,1.9409633E-1,-2.5475252E-1,1.5891685E-1,1.4152782E-1,8.868343E-2,2.5300112E-1,1.3891107E-1,3.0284053E-1,-7.218647E-2,2.9346222E-2,1.0068241E-1,2.0657027E-2,2.8819358E-2,4.0528864E-2,1.0199916E-1,2.5101718E-2,4.5212746E-2,1.1473694E-1,4.4019986E-2],"categories":[],"categories_nodes":[],"categories_segments":[],"categories_sizes":[],"default_left":[0,0,0,0,0,0,0,0,0,0,0,0,0,0,0,0,0,0,0,0,0,0,0,0,0,0,0,0,0,0,0],"id":14,"left_children":[1,3,5,7,-1,-1,-1,9,-1,11,13,15,17,-1,19,21,23,25,27,29,-1,-1,-1,-1,-1,-1,-1,-1,-1,-1,-1],"loss_changes":[5.6724715E-1,1.3898194E0,7.09213E-2,6.210325E-1,0E0,0E0,0E0,6.18695E-1,0E0,3.1122065E-1,3.1020157E0,4.5909166E-2,1.20887876E-1,0E0,8.204094E-1,1.7075491E-1,1.0361075E-2,1.7972755E-1,4.9860477E-3,6.816715E-2,0E0,0E0,0E0,0E0,0E0,0E0,0E0,0E0,0E0,0E0,0E0],"parents":[2147483647,0,0,1,1,2,2,3,3,7,7,9,9,10,10,11,11,12,12,14,14,15,15,16,16,17,17,18,18,19,19],"right_children":[2,4,6,8,-1,-1,-1,10,-1,12,14,16,18,-1,20,22,24,26,28,30,-1,-1,-1,-1,-1,-1,-1,-1,-1,-1,-1],"split_conditions":[1.6140673E1,1.6132303E1,1.620727E1,1.6126558E1,-1.4440034E-1,6.799629E-2,1.4541107E-1,1.6072416E1,1.5300687E-1,1.5765058E1,1.6061075E1,5.570229E-2,-1.8369701E-16,-2.5475252E-1,6.1211903E-2,1.5299817E1,1.5137815E1,1.602802E1,6.2558055E-2,1.6100113E1,-7.218647E-2,2.9346222E-2,1.0068241E-1,2.0657027E-2,2.8819358E-2,4.0528864E-2,1.0199916E-1,2.5101718E-2,4.5212746E-2,1.1473694E-1,4.4019986E-2],"split_indices":[9,9,6,9,0,0,0,10,0,11,9,12,5,0,12,8,8,9,12,6,0,0,0,0,0,0,0,0,0,0,0],"split_type":[0,0,0,0,0,0,0,0,0,0,0,0,0,0,0,0,0,0,0,0,0,0,0,0,0,0,0,0,0,0,0],"sum_hessian":[2.16E2,2.06E2,1E1,2.03E2,3E0,7E0,3E0,2E2,3E0,1.85E2,1.5E1,1.38E2,4.7E1,3E0,1.2E1,2.3E1,1.15E2,2.1E1,2.6E1,9E0,3E0,2E1,3E0,3.4E1,8.1E1,1E1,1.1E1,6E0,2E1,5E0,4E0],"tree_param":{"num_deleted":"0","num_feature":"13","num_nodes":"31","size_leaf_vector":"0"}},{"base_weights":[8.443232E-2,1.22652344E-1,7.797406E-2,8.793591E-2,-2.2917421E-1,7.220987E-2,2.4056801E-1,-2.3300995E-1,1.1269348E-1,9.153942E-2,-2.5484964E-1,9.251755E-2,1.7530482E-1,7.139665E-2,1.4246012E-1,2.0842552E-2,2.0286189E-1,1.0544462E-1,6.390104E-2,1.2083964E-1,6.9699414E-2,7.9432875E-2,3.0112553E-2,1.7667118E-2,6.8259954E-2,1.2844461E-2,2.098587E-2,2.4422297E-2,5.1982295E-2],"categories":[],"categories_nodes":[],"categories_segments":[],"categories_sizes":[],"default_left":[0,0,0,0,0,0,0,0,0,0,0,0,0,0,0,0,0,0,0,0,0,0,0,0,0,0,0,0,0],"id":15,"left_children":[1,-1,3,5,7,9,11,-1,-1,13,-1,-1,15,17,19,-1,21,23,25,27,-1,-1,-1,-1,-1,-1,-1,-1,-1],"loss_changes":[4.2276144E-1,0E0,6.74942E-1,4.8189044E-1,2.6098409E0,3.4628417E0,3.0038953E-2,0E0,0E0,1.816318E-1,0E0,0E0,2.0902395E-2,2.7970552E-2,7.296431E-2,0E0,3.0531615E-2,1.1732644E-1,1.1552572E-2,7.686871E-2,0E0,0E0,0E0,0E0,0E0,0E0,0E0,0E0,0E0],"parents":[2147483647,0,0,2,2,3,3,4,4,5,5,6,6,9,9,12,12,13,13,14,14,16,16,17,17,18,18,19,19],"right_children":[2,-1,4,6,8,10,12,-1,-1,14,-1,-1,16,18,20,-1,22,24,26,28,-1,-1,-1,-1,-1,-1,-1,-1,-1],"split_conditions":[1.4942224E1,1.22652344E-1,1.6186394E1,1.6095808E1,1.6153088E1,1.6072416E1,1.6100113E1,-2.3300995E-1,1.1269348E-1,1.5752529E1,-2.5484964E-1,9.251755E-2,1.610672E1,5.570229E-2,2.21E2,2.0842552E-2,-2.4492937E-16,8.8E1,1.5137867E1,1.6045437E1,6.9699414E-2,7.9432875E-2,3.0112553E-2,1.7667118E-2,6.8259954E-2,1.2844461E-2,2.098587E-2,2.4422297E-2,5.1982295E-2],"split_indices":[8,0,6,10,9,10,6,0,0,11,0,0,10,12,1,0,4,1,10,7,0,0,0,0,0,0,0,0,0],"split_type":[0,0,0,0,0,0,0,0,0,0,0,0,0,0,0,0,0,0,0,0,0,0,0,0,0,0,0,0,0],"sum_hessian":[2.16E2,3E0,2.13E2,2.07E2,6E0,1.89E2,1.8E1,3E0,3E0,1.86E2,3E0,7E0,1.1E1,1.35E2,5.1E1,3E0,8E0,2.2E1,1.13E2,4.3E1,8E0,4E0,4E0,1.7E1,5E0,2.7E1,8.6E1,2.6E1,1.7E1],"tree_param":{"num_deleted":"0","num_feature":"13","num_nodes":"29","size_leaf_vector":"0"}},{"base_weights":[6.019143E-2,5.2997243E-2,2.6844612E-1,6.1227635E-2,-1.1646975E-1,1.5027732E-1,-9.3431E-3,4.7037985E-2,1.8534315E-1,6.43262E-2,-2.292904E-1,2.291897E-1,1.2464723E-1,4.930048E-2,1.08658254E-1,8.034749E-2,3.8778707E-2,4.6083808E-2,1.7749844E-2,3.9802574E-2,6.667558E-2,7.560649E-2,8.9004084E-2,1.3871609E-2,9.75647E-4,6.267035E-2,1.576549E-2,3.1763464E-2,1.1398673E-2],"categories":[],"categories_nodes":[],"categories_segments":[],"categories_sizes":[],"default_left":[0,0,0,0,0,0,0,0,0,0,0,0,0,0,0,0,0,0,0,0,0,0,0,0,0,0,0,0,0],"id":16,"left_children":[1,3,5,7,-1,-1,-1,9,11,13,-1,15,17,19,21,-1,-1,-1,-1,23,25,-1,27,-1,-1,-1,-1,-1,-1],"loss_changes":[3.108877E-1,7.900157E-1,5.0313735E-1,3.5760212E-1,0E0,0E0,0E0,2.6861663E0,2.731955E-2,1.1787552E-1,0E0,7.848263E-3,1.1774898E-2,2.0449936E-2,1.0718262E-1,0E0,0E0,0E0,0E0,2.172722E-2,8.5443705E-2,0E0,3.212753E-2,0E0,0E0,0E0,0E0,0E0,0E0],"parents":[2147483647,0,0,1,1,2,2,3,3,7,7,8,8,9,9,11,11,12,12,13,13,14,14,19,19,20,20,22,22],"right_children":[2,4,6,8,-1,-1,-1,10,12,14,-1,16,18,20,22,-1,-1,-1,-1,24,26,-1,28,-1,-1,-1,-1,-1,-1],"split_conditions":[1.619026E1,1.6181473E1,1.6207432E1,1.6072622E1,-1.1646975E-1,1.5027732E-1,-9.3431E-3,1.6068472E1,-1.8369701E-16,1.5765058E1,-2.292904E-1,1.6100113E1,-2.4492937E-16,1.5462167E1,6.0327467E-2,8.034749E-2,3.8778707E-2,4.6083808E-2,1.7749844E-2,1.04E2,5.540789E-2,7.560649E-2,4E0,1.3871609E-2,9.75647E-4,6.267035E-2,1.576549E-2,3.1763464E-2,1.1398673E-2],"split_indices":[6,6,6,10,0,0,0,10,5,11,0,6,4,8,12,0,0,0,0,1,12,0,2,0,0,0,0,0,0],"split_type":[0,0,0,0,0,0,0,0,0,0,0,0,0,0,0,0,0,0,0,0,0,0,0,0,0,0,0,0,0],"sum_hessian":[2.16E2,2.1E2,6E0,2.07E2,3E0,3E0,3E0,1.87E2,2E1,1.84E2,3E0,1E1,1E1,1.39E2,4.5E1,6E0,4E0,6E0,4E0,9.2E1,4.7E1,4E0,4.1E1,7.8E1,1.4E1,3E0,4.4E1,3E1,1.1E1],"tree_param":{"num_deleted":"0","num_feature":"13","num_nodes":"29","size_leaf_vector":"0"}},{"base_weights":[4.3010656E-2,3.5402276E-2,1.8227647E-1,4.2359218E-2,-9.84757E-2,1.24590695E-2,2.5676998E-1,3.55418E-2,1.1230338E-1,2.869277E-2,1.0611148E-1,4.9332727E-2,-9.915724E-2,3.4056306E-2,9.542362E-2,9.274787E-2,-2.525965E-1,4.035471E-2,1.341845E-2,7.2920516E-2,7.0891306E-2,4.681492E-2,5.8643103E-2,2.7899707E-2,9.793443E-3,9.4843665E-3,-6.7726853E-3,1.4919842E-2,4.1473422E-2,2.3755932E-2,7.4706078E-3],"categories":[],"categories_nodes":[],"categories_segments":[],"categories_sizes":[],"default_left":[0,0,0,0,0,0,0,0,0,0,0,0,0,0,0,0,0,0,0,0,0,0,0,0,0,0,0,0,0,0,0],"id":17,"left_children":[1,3,5,7,-1,-1,9,11,-1,-1,-1,13,15,17,19,21,-1,23,25,-1,27,-1,29,-1,-1,-1,-1,-1,-1,-1,-1],"loss_changes":[2.2347742E-1,5.375987E-1,1.0466784E-1,4.484048E-1,0E0,0E0,7.550287E-2,3.782743E-1,0E0,0E0,0E0,1.256012E-1,2.786601E0,1.7526492E-2,1.4576149E-1,2.5391087E-2,0E0,3.9987594E-2,2.2982076E-2,0E0,5.012861E-2,0E0,6.34595E-3,0E0,0E0,0E0,0E0,0E0,0E0,0E0,0E0],"parents":[2147483647,0,0,1,1,2,2,3,3,6,6,7,7,11,11,12,12,13,13,14,14,15,15,17,17,18,18,20,20,22,22],"right_children":[2,4,6,8,-1,-1,10,12,-1,-1,-1,14,16,18,20,22,-1,24,26,-1,28,-1,30,-1,-1,-1,-1,-1,-1,-1,-1],"split_conditions":[1.6140673E1,1.6132303E1,1.59925375E1,1.6126558E1,-9.84757E-2,1.24590695E-2,1.6144533E1,1.604721E1,1.1230338E-1,2.869277E-2,1.0611148E-1,1.5765058E1,1.87E2,8.660254E-1,5.870511E-2,1.6048952E1,-2.525965E-1,2E0,5E-1,7.2920516E-2,2.21E2,4.681492E-2,6.412911E-2,2.7899707E-2,9.793443E-3,9.4843665E-3,-6.7726853E-3,1.4919842E-2,4.1473422E-2,2.3755932E-2,7.4706078E-3],"split_indices":[9,9,8,9,0,0,6,11,0,0,0,11,1,4,12,7,0,2,5,0,1,0,12,0,0,0,0,0,0,0,0],"split_type":[0,0,0,0,0,0,0,0,0,0,0,0,0,0,0,0,0,0,0,0,0,0,0,0,0,0,0,0,0,0,0],"sum_hessian":[2.16E2,2.06E2,1E1,2.03E2,3E0,4E0,6E0,2E2,3E0,3E0,3E0,1.82E2,1.8E1,1.38E2,4.4E1,1.5E1,3E0,1.05E2,3.3E1,5E0,3.9E1,4E0,1.1E1,1.2E1,9.3E1,2.2E1,1.1E1,3.1E1,8E0,6E0,5E0],"tree_param":{"num_deleted":"0","num_feature":"13","num_nodes":"31","size_leaf_vector":"0"}},{"base_weights":[3.082758E-2,2.4817344E-2,2.0758928E-1,3.1069878E-2,-9.195564E-2,1.0617335E-1,2.8110268E-3,4.019259E-2,-7.379072E-2,2.9823637E-2,1.3303496E-1,9.4552584E-2,-1.9336338E-1,7.629234E-2,2.2946937E-2,9.8413944E-2,7.1478084E-2,5.5236816E-2,4.6282083E-2,2.170914E-2,9.494684E-2,1.9979239E-2,6.338711E-2,1.1641423E-1,1.06591415E-2,7.868358E-2,1.1873246E-4,2.188049E-3,1.5518237E-2,6.900763E-3,-1.6017152E-2,-6.5071825E-3,3.0884294E-2,1.2437725E-2,4.1037817E-2,1.2709666E-2,2.8599216E-2],"categories":[],"categories_nodes":[],"categories_segments":[],"categories_sizes":[],"default_left":[0,0,0,0,0,0,0,0,0,0,0,0,0,0,0,0,0,0,0,0,0,0,0,0,0,0,0,0,0,0,0,0,0,0,0,0,0],"id":18,"left_children":[1,3,5,7,-1,-1,-1,9,11,13,15,17,-1,19,21,23,-1,25,-1,27,-1,29,31,33,-1,35,-1,-1,-1,-1,-1,-1,-1,-1,-1,-1,-1],"loss_changes":[2.2538449E-1,4.4665024E-1,1.9971046E-1,2.019413E-1,0E0,0E0,0E0,1.808666E-1,1.6943476E0,5.3851247E-2,4.5768976E-2,2.4350107E-2,0E0,2.8156528E-1,1.7095752E-2,1.3974473E-2,0E0,1.2827309E-2,0E0,7.84466E-3,0E0,3.3170056E-2,3.5890196E-2,1.2658387E-2,0E0,1.9340217E-4,0E0,0E0,0E0,0E0,0E0,0E0,0E0,0E0,0E0,0E0,0E0],"parents":[2147483647,0,0,1,1,2,2,3,3,7,7,8,8,9,9,10,10,11,11,13,13,14,14,15,15,17,17,19,19,21,21,22,22,23,23,25,25],"right_children":[2,4,6,8,-1,-1,-1,10,12,14,16,18,-1,20,22,24,-1,26,-1,28,-1,30,32,34,-1,36,-1,-1,-1,-1,-1,-1,-1,-1,-1,-1,-1],"split_conditions":[1.619026E1,1.6181473E1,1.6207432E1,2.23E2,-9.195564E-2,1.0617335E-1,2.8110268E-3,1.6067732E1,1.5779734E1,5.4828793E-2,1.6097166E1,1.605129E1,-1.9336338E-1,2.008E3,1.6059574E1,1.6061327E1,7.1478084E-2,2.33E2,4.6282083E-2,1.5208955E1,9.494684E-2,1.605633E1,1.6E2,1.6086609E1,1.06591415E-2,2.27E2,1.1873246E-4,2.188049E-3,1.5518237E-2,6.900763E-3,-1.6017152E-2,-6.5071825E-3,3.0884294E-2,1.2437725E-2,4.1037817E-2,1.2709666E-2,2.8599216E-2],"split_indices":[6,6,6,1,0,0,0,10,11,12,8,8,0,0,10,8,0,1,0,8,0,10,1,6,0,1,0,0,0,0,0,0,0,0,0,0,0],"split_type":[0,0,0,0,0,0,0,0,0,0,0,0,0,0,0,0,0,0,0,0,0,0,0,0,0,0,0,0,0,0,0,0,0,0,0,0,0],"sum_hessian":[2.16E2,2.1E2,6E0,2.07E2,3E0,3E0,3E0,1.91E2,1.6E1,1.73E2,1.8E1,1.3E1,3E0,2.1E1,1.52E2,1.5E1,3E0,9E0,4E0,1.8E1,3E0,1.43E2,9E0,1.1E1,4E0,6E0,3E0,1.3E1,5E0,1.38E2,5E0,3E0,6E0,3E0,8E0,3E0,3E0],"tree_param":{"num_deleted":"0","num_feature":"13","num_nodes":"37","size_leaf_vector":"0"}},{"base_weights":[2.2385338E-2,1.4401381E-2,1.7059387E-1,2.8343348E-2,-7.959482E-2,4.6313524E-2,1.1295183E-1,3.640875E-2,-1.5062201E-1,-1.7277253E-1,6.44056E-3,-1.8439867E-3,3.0093098E-2,2.808065E-2,1.1499982E-1,-9.822686E-2,6.2829214E-3,4.725446E-2,-3.7163068E-2,2.2739984E-2,5.1347688E-2,2.8322756E-2,3.3350304E-2,1.7343672E-2,7.590663E-2,3.7857495E-2,-2.923751E-3,-1.2376861E-3,7.286118E-3,2.930135E-2,3.852997E-3,-2.10886E-3,1.5607968E-2],"categories":[],"categories_nodes":[],"categories_segments":[],"categories_sizes":[],"default_left":[0,0,0,0,0,0,0,0,0,0,0,0,0,0,0,0,0,0,0,0,0,0,0,0,0,0,0,0,0,0,0,0,0],"id":19,"left_children":[1,3,5,7,9,11,-1,13,15,-1,17,-1,-1,19,-1,-1,-1,21,-1,23,-1,25,-1,27,29,31,-1,-1,-1,-1,-1,-1,-1],"loss_changes":[2.5431728E-1,2.7352786E-1,2.640619E-1,2.6674426E-1,1.1566235E0,2.3278013E-2,0E0,4.9195945E-1,2.4952005E-1,0E0,1.3350406E-1,0E0,0E0,1.2677464E-1,0E0,0E0,0E0,1.9841164E-2,0E0,4.630953E-2,0E0,6.1765388E-3,0E0,2.275877E-2,1.9333735E-2,8.633815E-3,0E0,0E0,0E0,0E0,0E0,0E0,0E0],"parents":[2147483647,0,0,1,1,2,2,3,3,4,4,5,5,7,7,8,8,10,10,13,13,17,17,19,19,21,21,23,23,24,24,25,25],"right_children":[2,4,6,8,10,12,-1,14,16,-1,18,-1,-1,20,-1,-1,-1,22,-1,24,-1,26,-1,28,30,32,-1,-1,-1,-1,-1,-1,-1],"split_conditions":[1.6172947E1,1.6076271E1,1.6061323E1,1.6139841E1,5.600251E-2,1.94E2,1.1295183E-1,1.6156044E1,1.6153088E1,-1.7277253E-1,1.612517E1,-1.8439867E-3,3.0093098E-2,1.6100113E1,1.1499982E-1,-9.822686E-2,6.2829214E-3,2.15E2,-3.7163068E-2,1.6047022E1,5.1347688E-2,2.08E2,3.3350304E-2,-5E-1,6.123234E-17,1.3740069E1,-2.923751E-3,-1.2376861E-3,7.286118E-3,2.930135E-2,3.852997E-3,-2.10886E-3,1.5607968E-2],"split_indices":[7,8,10,9,12,1,0,6,9,0,6,0,0,7,0,0,0,1,0,11,0,1,0,4,5,9,0,0,0,0,0,0,0],"split_type":[0,0,0,0,0,0,0,0,0,0,0,0,0,0,0,0,0,0,0,0,0,0,0,0,0,0,0,0,0,0,0,0,0],"sum_hessian":[2.16E2,2.06E2,1E1,1.8E2,2.6E1,7E0,3E0,1.73E2,7E0,3E0,2.3E1,4E0,3E0,1.7E2,3E0,3E0,4E0,1.8E1,5E0,1.65E2,5E0,1.5E1,3E0,1.51E2,1.4E1,1.2E1,3E0,3.7E1,1.14E2,1E1,4E0,3E0,9E0],"tree_param":{"num_deleted":"0","num_feature":"13","num_nodes":"33","size_leaf_vector":"0"}},{"base_weights":[1.6078984E-2,6.274937E-3,9.850116E-2,1.7410384E-2,-2.2579214E-1,5.2441787E-2,9.125183E-2,2.3025945E-2,-1.3027914E-1,-1.7030561E-1,1.1930609E-2,4.6784595E-2,2.5002424E-2,1.671165E-2,1.1055962E-1,8.055511E-2,-1.4895165E-1,5.6336946E-3,2.5962712E-2,8.216249E-3,3.583167E-2,6.1451964E-2,1.3953754E-2,1.9136863E-2,-9.872532E-3,1.1279214E-2,-1.916256E-2,3.734316E-2,2.585127E-2,-2.3612024E-3,9.686924E-3,1.0030389E-2,9.595871E-3,-5.1961495E-3,4.5282254E-3,-1.185894E-3,1.2696915E-2,5.838633E-4,4.1389274E-3],"categories":[],"categories_nodes":[],"categories_segments":[],"categories_sizes":[],"default_left":[0,0,0,0,0,0,0,0,0,0,0,0,0,0,0,0,0,0,0,0,0,0,0,0,0,0,0,0,0,0,0,0,0,0,0,0,0,0,0],"id":20,"left_children":[1,3,5,7,9,11,-1,13,15,-1,-1,-1,17,19,21,-1,-1,23,-1,25,27,-1,29,31,-1,33,-1,-1,35,-1,-1,-1,37,-1,-1,-1,-1,-1,-1],"loss_changes":[1.7473331E-1,5.0784445E-1,2.0193003E-1,1.5809E-1,8.3971715E-1,5.2904155E-2,0E0,9.8193504E-2,1.1556678E0,0E0,0E0,0E0,1.9775607E-2,2.7319081E-2,1.0643801E-1,0E0,0E0,7.915936E-3,0E0,2.699728E-2,4.2787433E-2,0E0,3.0553495E-3,1.1797291E-3,0E0,1.2808417E-2,0E0,0E0,2.3731899E-2,0E0,0E0,0E0,2.3021176E-4,0E0,0E0,0E0,0E0,0E0,0E0],"parents":[2147483647,0,0,1,1,2,2,3,3,4,4,5,5,7,7,8,8,12,12,13,13,14,14,17,17,19,19,20,20,22,22,23,23,25,25,28,28,32,32],"right_children":[2,4,6,8,10,12,-1,14,16,-1,-1,-1,18,20,22,-1,-1,24,-1,26,28,-1,30,32,-1,34,-1,-1,36,-1,-1,-1,38,-1,-1,-1,-1,-1,-1],"split_conditions":[1.6105661E1,1.6091524E1,1.6070547E1,1.6186394E1,-2.4492937E-16,1.6006353E1,9.125183E-2,1.6100113E1,1.5982838E1,-1.7030561E-1,1.1930609E-2,4.6784595E-2,1.6136917E1,1.5723341E1,1.6061327E1,8.055511E-2,-1.4895165E-1,1.6042208E1,2.5962712E-2,1.6041107E1,1.5745072E1,6.1451964E-2,1.6086609E1,1.6015995E1,-9.872532E-3,1.5081767E1,-1.916256E-2,3.734316E-2,1.5977433E1,-2.3612024E-3,9.686924E-3,1.0030389E-2,1.6032074E1,-5.1961495E-3,4.5282254E-3,-1.185894E-3,1.2696915E-2,5.838633E-4,4.1389274E-3],"split_indices":[8,8,11,6,4,6,0,7,7,0,0,0,6,8,8,0,0,10,0,6,8,0,8,9,0,6,0,0,8,0,0,0,9,0,0,0,0,0,0],"split_type":[0,0,0,0,0,0,0,0,0,0,0,0,0,0,0,0,0,0,0,0,0,0,0,0,0,0,0,0,0,0,0,0,0,0,0,0,0,0,0],"sum_hessian":[2.16E2,1.94E2,2.2E1,1.86E2,8E0,1.9E1,3E0,1.8E2,6E0,3E0,5E0,3E0,1.6E1,1.69E2,1.1E1,3E0,3E0,1.3E1,3E0,1.18E2,5.1E1,5E0,6E0,1E1,3E0,1.14E2,4E0,4E0,4.7E1,3E0,3E0,3E0,7E0,1.3E1,1.01E2,1.7E1,3E1,3E0,4E0],"tree_param":{"num_deleted":"0","num_feature":"13","num_nodes":"39","size_leaf_vector":"0"}},{"base_weights":[1.1439293E-2,1.3336858E-3,7.690551E-2,1.2223305E-2,-1.5161012E-1,4.7527753E-2,7.459038E-2,5.1001098E-2,8.707761E-3,1.2603813E-2,1.12094775E-1,1.7793082E-2,-7.868242E-2,-7.5436593E-3,2.5185449E-2,5.2051593E-2,-2.413416E-3,1.2992162E-2,8.3123125E-2,1.4845134E-2,1.4060107E-2,1.1080291E-2,2.1816216E-2,4.6088934E-2,1.0814122E-2,7.507782E-3,4.2187828E-3,6.776245E-3,1.5440876E-4,-1.8299103E-3,7.5073247E-3,2.4899484E-3,-2.7508737E-4],"categories":[],"categories_nodes":[],"categories_segments":[],"categories_sizes":[],"default_left":[0,0,0,0,0,0,0,0,0,0,0,0,0,0,0,0,0,0,0,0,0,0,0,0,0,0,0,0,0,0,0,0,0],"id":21,"left_children":[1,3,5,7,-1,9,-1,-1,11,13,15,17,-1,-1,19,-1,-1,21,23,-1,25,27,-1,-1,29,-1,31,-1,-1,-1,-1,-1,-1],"loss_changes":[1.434594E-1,1.0490373E0,1.344884E-1,1.0169084E-1,0E0,5.7215475E-2,0E0,0E0,4.5520592E-1,9.182375E-3,6.779627E-2,5.474874E-2,0E0,0E0,3.0888328E-3,0E0,0E0,1.8264512E-2,5.9517823E-2,0E0,1.0815226E-3,1.980597E-2,0E0,0E0,1.835094E-3,0E0,1.543249E-4,0E0,0E0,0E0,0E0,0E0,0E0],"parents":[2147483647,0,0,1,1,2,2,3,3,5,5,8,8,9,9,10,10,11,11,14,14,17,17,18,18,20,20,21,21,24,24,26,26],"right_children":[2,4,6,8,-1,10,-1,-1,12,14,16,18,-1,-1,20,-1,-1,22,24,-1,26,28,-1,-1,30,-1,32,-1,-1,-1,-1,-1,-1],"split_conditions":[1.6097166E1,1.6091278E1,1.6097666E1,1.4942224E1,-1.5161012E-1,2.09E2,7.459038E-2,5.1001098E-2,1.6186394E1,6.858823E-2,1.6025639E1,1.6100113E1,-7.868242E-2,-7.5436593E-3,1.92E2,5.2051593E-2,-2.413416E-3,1.6132303E1,1.6061327E1,1.4845134E-2,1.6015995E1,6.917076E-2,2.1816216E-2,4.6088934E-2,1.6086609E1,7.507782E-3,-2.4492937E-16,6.776245E-3,1.5440876E-4,-1.8299103E-3,7.5073247E-3,2.4899484E-3,-2.7508737E-4],"split_indices":[8,8,10,8,0,1,0,0,6,12,10,7,0,0,1,0,0,9,8,0,9,12,0,0,8,0,4,0,0,0,0,0,0],"split_type":[0,0,0,0,0,0,0,0,0,0,0,0,0,0,0,0,0,0,0,0,0,0,0,0,0,0,0,0,0,0,0,0,0],"sum_hessian":[2.16E2,1.88E2,2.8E1,1.85E2,3E0,2.5E1,3E0,3E0,1.82E2,1.7E1,8E0,1.77E2,5E0,4E0,1.3E1,5E0,3E0,1.66E2,1.1E1,3E0,1E1,1.62E2,4E0,5E0,6E0,4E0,6E0,7.7E1,8.5E1,3E0,3E0,3E0,3E0],"tree_param":{"num_deleted":"0","num_feature":"13","num_nodes":"33","size_leaf_vector":"0"}},{"base_weights":[8.20323E-3,2.866989E-3,1.6788088E-1,7.0095337E-3,-6.397863E-2,7.944625E-2,8.691216E-3,1.5199219E-2,-8.5898064E-2,3.9417353E-2,1.9029618E-3,-1.4819299E-1,3.683138E-2,2.229042E-2,1.4921719E-1,4.1378746E-3,-1.5768757E-2,5.225849E-2,-4.4403076E-3,7.7561596E-3,4.70425E-2,5.5699315E-2,2.4877967E-2,1.0727163E-3,4.7299147E-2,2.1083968E-2,2.563534E-2,-4.700661E-4,2.1439876E-2,5.063267E-3,2.9316438E-2,-9.621239E-3,1.1630005E-3,5.1962472E-3,2.188418E-2,1.0978675E-2,9.040833E-5],"categories":[],"categories_nodes":[],"categories_segments":[],"categories_sizes":[],"default_left":[0,0,0,0,0,0,0,0,0,0,0,0,0,0,0,0,0,0,0,0,0,0,0,0,0,0,0,0,0,0,0,0,0,0,0,0,0],"id":22,"left_children":[1,3,5,7,-1,-1,-1,9,11,13,15,-1,17,19,21,23,-1,25,-1,27,29,-1,-1,31,33,35,-1,-1,-1,-1,-1,-1,-1,-1,-1,-1,-1],"loss_changes":[1.8441969E-1,1.904083E-1,8.6589545E-2,1.5956946E-1,0E0,0E0,0E0,6.1751008E-2,8.696091E-1,1.245502E-1,1.54332E-2,0E0,1.1925023E-2,2.122032E-2,6.348446E-3,1.5957095E-2,0E0,9.580763E-3,0E0,2.3276895E-2,3.198272E-2,0E0,0E0,1.0718668E-2,4.887594E-3,2.245574E-3,0E0,0E0,0E0,0E0,0E0,0E0,0E0,0E0,0E0,0E0,0E0],"parents":[2147483647,0,0,1,1,2,2,3,3,7,7,8,8,9,9,10,10,12,12,13,13,14,14,15,15,17,17,19,19,20,20,23,23,24,24,25,25],"right_children":[2,4,6,8,-1,-1,-1,10,12,14,16,-1,18,20,22,24,-1,26,-1,28,30,-1,-1,32,34,36,-1,-1,-1,-1,-1,-1,-1,-1,-1,-1,-1],"split_conditions":[1.619026E1,1.6181473E1,1.5957663E1,2.23E2,-6.397863E-2,7.944625E-2,8.691216E-3,6.435471E-2,5.9067164E-2,1.6091524E1,2.06E2,-1.4819299E-1,1.6117262E1,5E-1,-5E-1,1.6105028E1,-1.5768757E-2,1.60242E1,-4.4403076E-3,1.6074072E1,1.5977064E1,5.5699315E-2,2.4877967E-2,1.5061376E1,2.015E3,1.6054073E1,2.563534E-2,-4.700661E-4,2.1439876E-2,5.063267E-3,2.9316438E-2,-9.621239E-3,1.1630005E-3,5.1962472E-3,2.188418E-2,1.0978675E-2,9.040833E-5],"split_indices":[6,6,8,1,0,0,0,12,12,7,1,0,7,4,5,6,0,8,0,8,7,0,0,8,0,7,0,0,0,0,0,0,0,0,0,0,0],"split_type":[0,0,0,0,0,0,0,0,0,0,0,0,0,0,0,0,0,0,0,0,0,0,0,0,0,0,0,0,0,0,0,0,0,0,0,0,0],"sum_hessian":[2.16E2,2.1E2,6E0,2.07E2,3E0,3E0,3E0,1.91E2,1.6E1,6.7E1,1.24E2,3E0,1.3E1,5.9E1,8E0,1.2E2,4E0,1E1,3E0,3.8E1,2.1E1,4E0,4E0,1.13E2,7E0,6E0,4E0,3.4E1,4E0,1.4E1,7E0,8E0,1.05E2,4E0,3E0,3E0,3E0],"tree_param":{"num_deleted":"0","num_feature":"13","num_nodes":"37","size_leaf_vector":"0"}},{"base_weights":[5.9590316E-3,1.8121077E-3,1.3010788E-1,5.016675E-3,-4.9583532E-2,6.157086E-2,6.735778E-3,1.1362393E-2,-6.694771E-2,2.9590985E-2,1.3551407E-3,4.5607157E-2,-1.3324586E-1,1.652565E-2,1.1340533E-1,3.050678E-3,-1.1984368E-2,1.0942459E-3,6.851281E-2,8.468569E-3,4.8048258E-2,4.2331528E-2,1.8907357E-2,6.769749E-4,3.6494613E-2,9.079386E-3,2.4777843E-2,5.564776E-3,-9.810305E-3,2.3054E-2,1.9326211E-3,-5.75382E-4,7.5447517E-3,1.8055988E-2,3.0726243E-3],"categories":[],"categories_nodes":[],"categories_segments":[],"categories_sizes":[],"default_left":[0,0,0,0,0,0,0,0,0,0,0,0,0,0,0,0,0,0,0,0,0,0,0,0,0,0,0,0,0,0,0,0,0,0,0],"id":23,"left_children":[1,3,5,7,-1,-1,-1,9,11,13,15,17,-1,19,21,23,-1,-1,25,27,29,-1,-1,31,33,-1,-1,-1,-1,-1,-1,-1,-1,-1,-1],"loss_changes":[1.1148361E-1,1.1380972E-1,5.2007623E-2,9.5747165E-2,0E0,0E0,0E0,3.498418E-2,7.420132E-1,7.259016E-2,8.875723E-3,1.3205694E-2,0E0,1.483191E-2,3.6667362E-3,9.580996E-3,0E0,0E0,2.3471713E-3,2.0942437E-2,1.3883255E-2,0E0,0E0,7.2876066E-3,4.3593664E-3,0E0,0E0,0E0,0E0,0E0,0E0,0E0,0E0,0E0,0E0],"parents":[2147483647,0,0,1,1,2,2,3,3,7,7,8,8,9,9,10,10,11,11,13,13,14,14,15,15,18,18,19,19,20,20,23,23,24,24],"right_children":[2,4,6,8,-1,-1,-1,10,12,14,16,18,-1,20,22,24,-1,-1,26,28,30,-1,-1,32,34,-1,-1,-1,-1,-1,-1,-1,-1,-1,-1],"split_conditions":[1.619026E1,1.6181473E1,1.5957663E1,2.23E2,-4.9583532E-2,6.157086E-2,6.735778E-3,6.435471E-2,1.5779734E1,1.6091524E1,2.06E2,2.019E3,-1.3324586E-1,6.188492E-2,-5E-1,1.6105028E1,-1.1984368E-2,1.0942459E-3,1.6006353E1,6.0327467E-2,1.6051468E1,4.2331528E-2,1.8907357E-2,1E0,1.612517E1,9.079386E-3,2.4777843E-2,5.564776E-3,-9.810305E-3,2.3054E-2,1.9326211E-3,-5.75382E-4,7.5447517E-3,1.8055988E-2,3.0726243E-3],"split_indices":[6,6,8,1,0,0,0,12,11,7,1,0,0,12,5,6,0,0,8,12,9,0,0,5,6,0,0,0,0,0,0,0,0,0,0],"split_type":[0,0,0,0,0,0,0,0,0,0,0,0,0,0,0,0,0,0,0,0,0,0,0,0,0,0,0,0,0,0,0,0,0,0,0],"sum_hessian":[2.16E2,2.1E2,6E0,2.07E2,3E0,3E0,3E0,1.91E2,1.6E1,6.7E1,1.24E2,1.3E1,3E0,5.9E1,8E0,1.2E2,4E0,5E0,8E0,4.8E1,1.1E1,4E0,4E0,1.13E2,7E0,3E0,5E0,3.9E1,9E0,6E0,5E0,1.03E2,1E1,3E0,4E0],"tree_param":{"num_deleted":"0","num_feature":"13","num_nodes":"35","size_leaf_vector":"0"}},{"base_weights":[4.2565255E-3,-3.2295927E-4,9.004714E-2,1.1530016E-2,-4.449489E-2,2.0792723E-2,6.181326E-2,6.242354E-3,1.2923296E-1,-1.1943856E-1,-8.908806E-3,-5.55954E-3,1.442814E-2,3.3933516E-3,3.452418E-2,6.773916E-2,1.0814667E-4,2.5089012E-2,-9.889827E-2,-1.8893696E-2,5.1176674E-3,1.1717856E-2,2.4789048E-2,1.9490991E-3,3.8847044E-2,2.072492E-2,-1.695385E-2,1.9705517E-3,-1.5846323E-2,1.8013818E-3,1.984197E-2,2.8244654E-5,1.4983201E-2],"categories":[],"categories_nodes":[],"categories_segments":[],"categories_sizes":[],"default_left":[0,0,0,0,0,0,0,0,0,0,0,0,0,0,0,0,0,0,0,0,0,0,0,0,0,0,0,0,0,0,0,0,0],"id":24,"left_children":[1,3,5,7,9,11,-1,13,15,-1,17,-1,-1,19,-1,-1,-1,21,-1,-1,23,25,-1,27,29,31,-1,-1,-1,-1,-1,-1,-1],"loss_changes":[8.5283354E-2,1.0889176E-1,8.408218E-2,1.012625E-1,5.501683E-1,9.480078E-3,0E0,4.8602186E-2,8.702989E-2,0E0,4.5537063E-1,0E0,0E0,1.8061569E-2,0E0,0E0,0E0,2.8268635E-2,0E0,0E0,1.6169105E-2,2.0837089E-2,0E0,3.576775E-2,1.1255588E-2,1.7476853E-2,0E0,0E0,0E0,0E0,0E0,0E0,0E0],"parents":[2147483647,0,0,1,1,2,2,3,3,4,4,5,5,7,7,8,8,10,10,13,13,17,17,20,20,21,21,23,23,24,24,25,25],"right_children":[2,4,6,8,10,12,-1,14,16,-1,18,-1,-1,20,-1,-1,-1,22,-1,-1,24,26,-1,28,30,32,-1,-1,-1,-1,-1,-1,-1],"split_conditions":[1.6172947E1,1.6035582E1,1.6122135E1,1.6139235E1,5.540789E-2,1.6155941E1,6.181326E-2,1.608716E1,1.61956E1,-1.1943856E-1,1.617543E1,-5.55954E-3,1.442814E-2,1.4949838E1,3.452418E-2,6.773916E-2,1.0814667E-4,1.6116396E1,-9.889827E-2,-1.8893696E-2,1.599962E1,1.6078106E1,2.4789048E-2,1.5962011E1,1.6056267E1,1.5749804E1,-1.695385E-2,1.9705517E-3,-1.5846323E-2,1.8013818E-3,1.984197E-2,2.8244654E-5,1.4983201E-2],"split_indices":[7,8,9,6,12,8,0,7,6,0,6,0,0,8,0,0,0,9,0,0,8,11,0,8,10,11,0,0,0,0,0,0,0],"split_type":[0,0,0,0,0,0,0,0,0,0,0,0,0,0,0,0,0,0,0,0,0,0,0,0,0,0,0,0,0,0,0,0,0],"sum_hessian":[2.16E2,2.06E2,1E1,1.63E2,4.3E1,7E0,3E0,1.57E2,6E0,3E0,4E1,3E0,4E0,1.54E2,3E0,3E0,3E0,3.7E1,3E0,3E0,1.51E2,3.1E1,6E0,1.39E2,1.2E1,2.8E1,3E0,1.29E2,1E1,6E0,6E0,1.7E1,1.1E1],"tree_param":{"num_deleted":"0","num_feature":"13","num_nodes":"33","size_leaf_vector":"0"}},{"base_weights":[2.8249635E-3,-2.930718E-4,9.640789E-2,2.3133664E-3,-4.072638E-2,5.053039E-2,8.375645E-5,7.5412295E-3,-5.6866813E-2,2.4175985E-2,-1.3640873E-3,-1.1107965E-1,3.673758E-2,1.2242786E-2,9.971852E-2,2.5552392E-2,-3.1621356E-3,7.7853734E-3,2.2212887E-2,-1.1438084E-2,2.3777151E-2,4.9366165E-2,1.1962558E-2,7.923317E-4,1.4341021E-2,-3.3857703E-2,-9.413617E-4,-3.3566474E-3,1.0290098E-2,5.4064393E-4,-1.5455762E-2,1.6558897E-2,2.5021485E-3,-1.6612673E-2,-2.9615595E-3,6.3243066E-4,-5.095037E-3],"categories":[],"categories_nodes":[],"categories_segments":[],"categories_sizes":[],"default_left":[0,0,0,0,0,0,0,0,0,0,0,0,0,0,0,0,0,0,0,0,0,0,0,0,0,0,0,0,0,0,0,0,0,0,0,0,0],"id":25,"left_children":[1,3,5,7,-1,-1,-1,9,11,13,15,-1,17,19,21,23,25,27,-1,29,31,-1,-1,-1,-1,33,35,-1,-1,-1,-1,-1,-1,-1,-1,-1,-1],"loss_changes":[6.3347735E-2,7.4812256E-2,4.8419833E-2,6.478111E-2,0E0,0E0,0E0,2.847543E-2,5.12306E-1,5.917726E-2,6.1788387E-3,0E0,1.4544571E-2,1.6387451E-2,2.8358065E-2,3.95214E-3,8.08011E-3,4.9116802E-3,0E0,1.070651E-2,1.8939909E-2,0E0,0E0,0E0,0E0,3.5823332E-3,5.5148187E-3,0E0,0E0,0E0,0E0,0E0,0E0,0E0,0E0,0E0,0E0],"parents":[2147483647,0,0,1,1,2,2,3,3,7,7,8,8,9,9,10,10,12,12,13,13,14,14,15,15,16,16,17,17,19,19,20,20,25,25,26,26],"right_children":[2,4,6,8,-1,-1,-1,10,12,14,16,-1,18,20,22,24,26,28,-1,30,32,-1,-1,-1,-1,34,36,-1,-1,-1,-1,-1,-1,-1,-1,-1,-1],"split_conditions":[1.619026E1,1.6181473E1,7.394199E-2,2.23E2,-4.072638E-2,5.053039E-2,8.375645E-5,6.412911E-2,2.26E2,1.6091524E1,3.2E1,-1.1107965E-1,1.611878E1,1.5208955E1,1.6119116E1,1.5112261E1,4E1,2.35E2,2.2212887E-2,8.3E1,5.6111E-2,4.9366165E-2,1.1962558E-2,7.923317E-4,1.4341021E-2,1.5101746E1,1.6042395E1,-3.3566474E-3,1.0290098E-2,5.4064393E-4,-1.5455762E-2,1.6558897E-2,2.5021485E-3,-1.6612673E-2,-2.9615595E-3,6.3243066E-4,-5.095037E-3],"split_indices":[6,6,12,1,0,0,0,12,1,7,1,0,9,8,7,7,1,1,0,1,12,0,0,0,0,8,9,0,0,0,0,0,0,0,0,0,0],"split_type":[0,0,0,0,0,0,0,0,0,0,0,0,0,0,0,0,0,0,0,0,0,0,0,0,0,0,0,0,0,0,0,0,0,0,0,0,0],"sum_hessian":[2.16E2,2.1E2,6E0,2.07E2,3E0,3E0,3E0,1.91E2,1.6E1,6.6E1,1.25E2,3E0,1.3E1,5.8E1,8E0,7E0,1.18E2,8E0,5E0,1.9E1,3.9E1,3E0,5E0,4E0,3E0,7E0,1.11E2,5E0,3E0,1.5E1,4E0,1.2E1,2.7E1,3E0,4E0,9.4E1,1.7E1],"tree_param":{"num_deleted":"0","num_feature":"13","num_nodes":"37","size_leaf_vector":"0"}},{"base_weights":[1.9060741E-3,-4.7808647E-2,7.760087E-3,1.8217277E-2,-1.0979584E-1,7.3407014E-4,6.027056E-2,-9.205937E-3,3.0698434E-2,5.3095305E-3,-3.8250353E-2,2.6616096E-2,5.283102E-2,4.7096447E-3,-1.8815756E-2,3.0744611E-3,2.8853633E-2,1.983137E-2,7.7913147E-3,-8.875704E-3,-6.896428E-3,1.359519E-3,1.7304212E-2,-7.07428E-3,2.2698307E-2,-3.6653283E-3,4.4703484E-5,4.4669986E-2,-8.992034E-4,-2.9830458E-3,3.8108144E-2,-2.3066283E-3,2.3286898E-2,-5.818272E-3,7.4881926E-4,5.484295E-3,1.4522482E-2],"categories":[],"categories_nodes":[],"categories_segments":[],"categories_sizes":[],"default_left":[0,0,0,0,0,0,0,0,0,0,0,0,0,0,0,0,0,0,0,0,0,0,0,0,0,0,0,0,0,0,0,0,0,0,0,0,0],"id":26,"left_children":[1,3,5,7,-1,9,11,13,-1,15,-1,17,-1,-1,19,21,-1,-1,23,-1,25,27,-1,-1,29,-1,-1,31,33,-1,35,-1,-1,-1,-1,-1,-1],"loss_changes":[6.352464E-2,4.898504E-1,7.189895E-2,4.7073815E-2,0E0,1.0218217E-1,8.4973544E-2,4.124668E-3,0E0,3.3824947E-2,0E0,1.3608835E-2,0E0,0E0,1.3364074E-3,1.5373261E-2,0E0,0E0,7.08257E-3,0E0,2.6425847E-4,1.5790207E-2,0E0,0E0,5.4089753E-3,0E0,0E0,1.4399847E-2,9.71893E-3,0E0,5.4460485E-4,0E0,0E0,0E0,0E0,0E0,0E0],"parents":[2147483647,0,0,1,1,2,2,3,3,5,5,6,6,7,7,9,9,11,11,14,14,15,15,18,18,20,20,21,21,24,24,27,27,28,28,30,30],"right_children":[2,4,6,8,-1,10,12,14,-1,16,-1,18,-1,-1,20,22,-1,-1,24,-1,26,28,-1,-1,30,-1,-1,32,34,-1,36,-1,-1,-1,-1,-1,-1],"split_conditions":[5.361607E-2,5.3374033E-2,2.18E2,2.008E3,-1.0979584E-1,1.6186394E1,1.6151592E1,6E1,3.0698434E-2,1.6172947E1,-3.8250353E-2,1.6034998E1,5.283102E-2,4.7096447E-3,1.53568945E1,1.6127934E1,2.8853633E-2,1.983137E-2,1.6082952E1,-8.875704E-3,1.535321E1,5.6111E-2,1.7304212E-2,-7.07428E-3,1.5472119E1,-3.6653283E-3,4.4703484E-5,1.5282438E1,6.188492E-2,-2.9830458E-3,1.610205E1,-2.3066283E-3,2.3286898E-2,-5.818272E-3,7.4881926E-4,5.484295E-3,1.4522482E-2],"split_indices":[12,12,1,0,0,6,6,1,0,6,0,9,0,0,7,10,0,0,9,0,6,12,0,0,10,0,0,8,12,0,9,0,0,0,0,0,0],"split_type":[0,0,0,0,0,0,0,0,0,0,0,0,0,0,0,0,0,0,0,0,0,0,0,0,0,0,0,0,0,0,0,0,0,0,0,0,0],"sum_hessian":[2.16E2,2.2E1,1.94E2,1.9E1,3E0,1.72E2,2.2E1,1.5E1,4E0,1.67E2,5E0,1.8E1,4E0,4E0,1.1E1,1.64E2,3E0,5E0,1.3E1,5E0,6E0,1.6E2,4E0,4E0,9E0,3E0,3E0,7E0,1.53E2,3E0,6E0,3E0,4E0,2.3E1,1.3E2,3E0,3E0],"tree_param":{"num_deleted":"0","num_feature":"13","num_nodes":"37","size_leaf_vector":"0"}},{"base_weights":[1.4242445E-3,-1.1753001E-3,2.7911237E-2,8.573265E-3,-3.3779163E-2,4.007847E-3,8.675459E-2,-8.443673E-2,-1.1507739E-2,2.4655038E-3,1.8600155E-2,4.8734523E-2,6.549883E-3,1.1723674E-2,-7.751055E-2,8.481E-4,1.2585163E-2,3.8146973E-5,4.1908104E-2,2.5184816E-3,-1.42285535E-2,9.509314E-3,-1.6539574E-2,2.6089805E-3,2.423172E-2,1.0550492E-4,1.17930295E-2,5.3862957E-3,-2.983679E-3,-1.4636422E-2,-1.1075338E-4,-5.8133127E-3,7.1830275E-3],"categories":[],"categories_nodes":[],"categories_segments":[],"categories_sizes":[],"default_left":[0,0,0,0,0,0,0,0,0,0,0,0,0,0,0,0,0,0,0,0,0,0,0,0,0,0,0,0,0,0,0,0,0],"id":27,"left_children":[1,3,-1,5,7,9,11,-1,13,15,-1,-1,-1,17,-1,19,-1,21,23,25,-1,27,29,31,-1,-1,-1,-1,-1,-1,-1,-1,-1],"loss_changes":[5.1788457E-2,6.767186E-2,0E0,5.818889E-2,2.670505E-1,1.3800495E-2,4.0680774E-2,0E0,2.6683554E-1,9.735499E-3,0E0,0E0,0E0,1.5165404E-2,0E0,1.2054224E-2,0E0,5.1816115E-3,1.811726E-2,1.1465859E-2,0E0,3.6287988E-3,6.2396396E-3,3.747485E-3,0E0,0E0,0E0,0E0,0E0,0E0,0E0,0E0,0E0],"parents":[2147483647,0,0,1,1,3,3,4,4,5,5,6,6,8,8,9,9,13,13,15,15,17,17,18,18,19,19,21,21,22,22,23,23],"right_children":[2,4,-1,6,8,10,12,-1,14,16,-1,-1,-1,18,-1,20,-1,22,24,26,-1,28,30,32,-1,-1,-1,-1,-1,-1,-1,-1,-1],"split_conditions":[1.619026E1,1.6035582E1,2.7911237E-2,1.6132893E1,5.540789E-2,1.608716E1,7.394199E-2,-8.443673E-2,1.617543E1,1.602121E1,1.8600155E-2,4.8734523E-2,6.549883E-3,1.6097666E1,-7.751055E-2,1.6061327E1,1.2585163E-2,1.6025639E1,1.608716E1,1.6059574E1,-1.42285535E-2,8.660254E-1,1.6064268E1,2.016E3,2.423172E-2,1.0550492E-4,1.17930295E-2,5.3862957E-3,-2.983679E-3,-1.4636422E-2,-1.1075338E-4,-5.8133127E-3,7.1830275E-3],"split_indices":[7,8,0,6,12,7,12,0,6,8,0,0,0,10,0,7,0,10,8,10,0,4,9,0,0,0,0,0,0,0,0,0,0],"split_type":[0,0,0,0,0,0,0,0,0,0,0,0,0,0,0,0,0,0,0,0,0,0,0,0,0,0,0,0,0,0,0,0,0],"sum_hessian":[2.16E2,2.11E2,5E0,1.63E2,4.8E1,1.55E2,8E0,3E0,4.5E1,1.52E2,3E0,3E0,5E0,4.2E1,3E0,1.47E2,5E0,3.1E1,1.1E1,1.43E2,4E0,2E1,1.1E1,6E0,5E0,1.36E2,7E0,1.4E1,6E0,3E0,8E0,3E0,3E0],"tree_param":{"num_deleted":"0","num_feature":"13","num_nodes":"33","size_leaf_vector":"0"}},{"base_weights":[8.2800025E-4,-2.6093498E-3,6.543741E-2,4.435228E-3,-6.521539E-2,-7.4066436E-3,4.629948E-2,8.036432E-3,-4.869869E-2,-1.0164357E-1,-7.9308613E-4,1.0954786E-2,-1.4843274E-2,4.852142E-3,4.5034934E-2,-1.925691E-2,2.0593358E-2,3.6914244E-2,1.8371126E-4,5.6123734E-3,-2.6715161E-2,4.352469E-3,4.5979846E-2,-1.353457E-2,1.344045E-3,-4.8535825E-3,1.4673657E-2,1.1710359E-2,-3.2466482E-3,1.3091604E-3,-4.1768737E-3,8.629608E-3,-3.039694E-3],"categories":[],"categories_nodes":[],"categories_segments":[],"categories_sizes":[],"default_left":[0,0,0,0,0,0,0,0,0,0,0,0,0,0,0,0,0,0,0,0,0,0,0,0,0,0,0,0,0,0,0,0,0],"id":28,"left_children":[1,3,5,7,9,11,-1,13,-1,-1,15,-1,-1,17,-1,19,-1,21,23,25,-1,27,-1,-1,29,-1,31,-1,-1,-1,-1,-1,-1],"loss_changes":[4.8363224E-2,9.158309E-2,7.2372615E-2,1.13607734E-1,3.6987132E-1,1.4741773E-2,0E0,8.2517624E-2,0E0,0E0,2.439939E-2,0E0,0E0,2.7085245E-2,0E0,2.6535548E-2,0E0,8.6471274E-2,8.417978E-3,2.6068506E-3,0E0,1.0421897E-2,0E0,0E0,7.252905E-3,0E0,3.4374848E-3,0E0,0E0,0E0,0E0,0E0,0E0],"parents":[2147483647,0,0,1,1,2,2,3,3,4,4,5,5,7,7,10,10,13,13,15,15,17,17,18,18,19,19,21,21,24,24,26,26],"right_children":[2,4,6,8,10,12,-1,14,-1,-1,16,-1,-1,18,-1,20,-1,22,24,26,-1,28,-1,-1,30,-1,32,-1,-1,-1,-1,-1,-1],"split_conditions":[1.6140673E1,1.604721E1,8.660254E-1,1.6127125E1,1.603222E1,1.83E2,4.629948E-2,1.6122135E1,-4.869869E-2,-1.0164357E-1,1.6080814E1,1.0954786E-2,-1.4843274E-2,5.540789E-2,4.5034934E-2,1.6091524E1,2.0593358E-2,2.008E3,1.4949838E1,-5E-1,-2.6715161E-2,5.9E1,4.5979846E-2,-1.353457E-2,1.6052597E1,-4.8535825E-3,6.123234E-17,1.1710359E-2,-3.2466482E-3,1.3091604E-3,-4.1768737E-3,8.629608E-3,-3.039694E-3],"split_indices":[9,11,5,9,6,1,0,9,0,0,8,0,0,12,0,7,0,0,8,5,0,1,0,0,7,0,5,0,0,0,0,0,0],"split_type":[0,0,0,0,0,0,0,0,0,0,0,0,0,0,0,0,0,0,0,0,0,0,0,0,0,0,0,0,0,0,0,0,0],"sum_hessian":[2.16E2,2.06E2,1E1,1.86E2,2E1,6E0,4E0,1.83E2,3E0,3E0,1.7E1,3E0,3E0,1.8E2,3E0,1.4E1,3E0,2.2E1,1.58E2,1.1E1,3E0,1.8E1,4E0,3E0,1.55E2,3E0,8E0,5E0,1.3E1,1.3E2,2.5E1,5E0,3E0],"tree_param":{"num_deleted":"0","num_feature":"13","num_nodes":"33","size_leaf_vector":"0"}},{"base_weights":[4.4028112E-4,-3.997651E-2,4.9746134E-3,1.5907789E-2,-8.862984E-2,-4.9015246E-3,2.1682374E-2,-1.9885302E-3,2.5054837E-2,2.0489022E-4,-4.7443558E-2,9.546941E-3,8.257524E-2,9.450961E-3,-1.2140715E-2,-3.0337498E-3,3.2867085E-2,3.2581083E-2,-7.993857E-3,4.7318595E-3,4.7888998E-2,-2.1858216E-4,-1.9182205E-2,4.3873354E-3,-1.3615442E-2,2.1292401E-2,-3.2155039E-3,5.086919E-2,-9.647263E-3,1.5944079E-2,-3.2817576E-2,4.4311527E-3,-1.9469262E-3,-7.989235E-3,-1.5227796E-3,-6.6997474E-3,1.712113E-2,-3.2309055E-2,-1.5430122E-3,7.494606E-2,-4.136515E-3,7.8018955E-3,-1.3011417E-2,-6.847295E-3,4.202864E-2,-6.116189E-2,-4.025936E-3,7.3938374E-3,-4.9607786E-3,-2.964771E-3,7.622695E-3,-3.415326E-3,-1.2546802E-2,1.2146703E-2,-2.9663087E-3,6.1946395E-3,3.0845072E-2,-6.1637065E-3,4.109974E-3,5.6909565E-3,1.9832898E-2,-2.4491884E-2,-4.546452E-3,5.3129913E-3,-4.761396E-3],"categories":[],"categories_nodes":[],"categories_segments":[],"categories_sizes":[],"default_left":[0,0,0,0,0,0,0,0,0,0,0,0,0,0,0,0,0,0,0,0,0,0,0,0,0,0,0,0,0,0,0,0,0,0,0,0,0,0,0,0,0,0,0,0,0,0,0,0,0,0,0,0,0,0,0,0,0,0,0,0,0,0,0,0,0],"id":29,"left_children":[1,3,5,7,-1,9,11,13,-1,15,-1,17,19,-1,21,23,25,27,29,31,-1,-1,33,35,37,-1,-1,39,41,43,45,-1,-1,-1,-1,47,49,51,53,55,-1,-1,-1,57,59,61,63,-1,-1,-1,-1,-1,-1,-1,-1,-1,-1,-1,-1,-1,-1,-1,-1,-1,-1],"loss_changes":[3.996697E-2,3.187716E-1,3.244787E-2,2.315494E-2,0E0,9.706559E-2,5.3155825E-2,5.822699E-3,0E0,1.2899223E-2,0E0,2.5310757E-2,7.122307E-2,0E0,1.0306808E-3,8.776304E-3,1.903102E-2,2.1342216E-2,2.1915477E-2,8.844058E-4,0E0,0E0,7.053977E-4,9.432629E-3,1.0331305E-2,0E0,0E0,3.0611672E-2,1.1949403E-2,1.15833385E-2,1.4443191E-2,0E0,0E0,0E0,0E0,1.1507199E-2,7.18899E-3,3.1071156E-3,1.0571916E-2,1.9063301E-2,0E0,0E0,0E0,3.377575E-3,3.7434213E-3,7.2418377E-3,2.8557822E-3,0E0,0E0,0E0,0E0,0E0,0E0,0E0,0E0,0E0,0E0,0E0,0E0,0E0,0E0,0E0,0E0,0E0,0E0],"parents":[2147483647,0,0,1,1,2,2,3,3,5,5,6,6,7,7,9,9,11,11,12,12,14,14,15,15,16,16,17,17,18,18,19,19,22,22,23,23,24,24,27,27,28,28,29,29,30,30,35,35,36,36,37,37,38,38,39,39,43,43,44,44,45,45,46,46],"right_children":[2,4,6,8,-1,10,12,14,-1,16,-1,18,20,-1,22,24,26,28,30,32,-1,-1,34,36,38,-1,-1,40,42,44,46,-1,-1,-1,-1,48,50,52,54,56,-1,-1,-1,58,60,62,64,-1,-1,-1,-1,-1,-1,-1,-1,-1,-1,-1,-1,-1,-1,-1,-1,-1,-1],"split_conditions":[5.3573843E-2,2.013E3,1.5857253E1,8.8E1,-8.862984E-2,1.6172947E1,1.6126558E1,1.5142117E1,2.5054837E-2,2.018E3,-4.7443558E-2,1.6052423E1,1.6144533E1,9.450961E-3,1.5371777E1,1.5491931E1,1.6054073E1,6.917076E-2,6.174388E-2,1.6139841E1,4.7888998E-2,-2.1858216E-4,1.5389658E1,1.5173823E1,1.18E2,2.1292401E-2,-3.2155039E-3,1.6051468E1,1.569424E1,5.9144218E-2,-1.8369701E-16,4.4311527E-3,-1.9469262E-3,-7.989235E-3,-1.5227796E-3,6.550598E-2,-5E-1,1.05E2,1.22E2,1.6020958E1,-4.136515E-3,7.8018955E-3,-1.3011417E-2,1.6080162E1,1.6071783E1,6.783219E-2,1.6087484E1,7.3938374E-3,-4.9607786E-3,-2.964771E-3,7.622695E-3,-3.415326E-3,-1.2546802E-2,1.2146703E-2,-2.9663087E-3,6.1946395E-3,3.0845072E-2,-6.1637065E-3,4.109974E-3,5.6909565E-3,1.9832898E-2,-2.4491884E-2,-4.546452E-3,5.3129913E-3,-4.761396E-3],"split_indices":[12,0,10,1,0,6,9,6,0,0,0,6,6,0,10,9,7,12,12,9,0,0,7,7,1,0,0,9,8,12,5,0,0,0,0,12,4,1,1,10,0,0,0,9,7,12,9,0,0,0,0,0,0,0,0,0,0,0,0,0,0,0,0,0,0],"split_type":[0,0,0,0,0,0,0,0,0,0,0,0,0,0,0,0,0,0,0,0,0,0,0,0,0,0,0,0,0,0,0,0,0,0,0,0,0,0,0,0,0,0,0,0,0,0,0,0,0,0,0,0,0,0,0,0,0,0,0,0,0,0,0,0,0],"sum_hessian":[2.16E2,2.1E1,1.95E2,1.8E1,3E0,1.23E2,7.2E1,1.5E1,3E0,1.2E2,3E0,6.1E1,1.1E1,3E0,1.2E1,1.1E2,1E1,2.6E1,3.5E1,6E0,5E0,5E0,7E0,6.5E1,4.5E1,5E0,5E0,1.8E1,8E0,1.8E1,1.7E1,3E0,3E0,4E0,3E0,3.5E1,3E1,1.7E1,2.8E1,1.3E1,5E0,4E0,4E0,1E1,8E0,8E0,9E0,8E0,2.7E1,7E0,2.3E1,6E0,1.1E1,4E0,2.4E1,5E0,8E0,6E0,4E0,5E0,3E0,5E0,3E0,3E0,6E0],"tree_param":{"num_deleted":"0","num_feature":"13","num_nodes":"65","size_leaf_vector":"0"}},{"base_weights":[2.1665107E-4,-3.724998E-3,3.362556E-2,1.3209358E-3,-1.081544E-1,1.6230106E-2,3.3658937E-2,4.77883E-3,-6.7599505E-2,-7.556549E-2,1.7075062E-3,4.9259424E-2,-5.3440975E-3,1.9786616E-3,3.0548688E-2,1.8211366E-3,-4.8361376E-2,2.0851279E-2,6.963501E-3,7.85092E-3,-1.7775672E-2,3.4439508E-3,-1.8457033E-2,-4.3244363E-4,4.5541767E-3,-2.3669244E-3,-6.965304E-3,-1.5357733E-3,1.4653818E-2,1.776571E-4,-1.2619735E-2,9.930552E-3,-1.7791748E-4],"categories":[],"categories_nodes":[],"categories_segments":[],"categories_sizes":[],"default_left":[0,0,0,0,0,0,0,0,0,0,0,0,0,0,0,0,0,0,0,0,0,0,0,0,0,0,0,0,0,0,0,0,0],"id":30,"left_children":[1,3,5,7,9,11,-1,13,15,-1,-1,17,19,21,-1,-1,-1,-1,-1,23,25,27,-1,-1,-1,-1,-1,29,31,-1,-1,-1,-1],"loss_changes":[2.870116E-2,1.0289692E-1,2.9614897E-2,4.4888813E-2,1.4870209E-1,1.4514872E-2,0E0,4.8442964E-2,6.304152E-2,0E0,0E0,2.6053507E-3,2.272008E-3,1.6495448E-2,0E0,0E0,0E0,0E0,0E0,4.9865386E-4,1.9341311E-4,9.623896E-3,0E0,0E0,0E0,0E0,0E0,1.0374476E-2,1.492719E-2,0E0,0E0,0E0,0E0],"parents":[2147483647,0,0,1,1,2,2,3,3,4,4,5,5,7,7,8,8,11,11,12,12,13,13,19,19,20,20,21,21,27,27,28,28],"right_children":[2,4,6,8,10,12,-1,14,16,-1,-1,18,20,22,-1,-1,-1,-1,-1,24,26,28,-1,-1,-1,-1,-1,30,32,-1,-1,-1,-1],"split_conditions":[1.6105661E1,1.6091524E1,1.6126558E1,1.6139841E1,-5E-1,-1.8369701E-16,3.3658937E-2,1.61261E1,2.016E3,-7.556549E-2,1.7075062E-3,6.0801376E-2,1.6057167E1,1.6110203E1,3.0548688E-2,1.8211366E-3,-4.8361376E-2,2.0851279E-2,6.963501E-3,1.6144533E1,1.6181473E1,1.5729916E1,-1.8457033E-2,-4.3244363E-4,4.5541767E-3,-2.3669244E-3,-6.965304E-3,1.6041107E1,-1.8369701E-16,1.776571E-4,-1.2619735E-2,9.930552E-3,-1.7791748E-4],"split_indices":[8,8,9,9,5,5,0,9,0,0,0,12,6,10,0,0,0,0,0,8,7,8,0,0,0,0,0,6,5,0,0,0,0],"split_type":[0,0,0,0,0,0,0,0,0,0,0,0,0,0,0,0,0,0,0,0,0,0,0,0,0,0,0,0,0,0,0,0,0],"sum_hessian":[2.16E2,1.94E2,2.2E1,1.86E2,8E0,1.9E1,3E0,1.78E2,8E0,3E0,5E0,7E0,1.2E1,1.74E2,4E0,5E0,3E0,3E0,4E0,6E0,6E0,1.71E2,3E0,3E0,3E0,3E0,3E0,1.19E2,5.2E1,1.14E2,5E0,2.3E1,2.9E1],"tree_param":{"num_deleted":"0","num_feature":"13","num_nodes":"33","size_leaf_vector":"0"}},{"base_weights":[-1.00421465E-4,-4.3905643E-3,2.6787821E-2,4.587019E-4,-6.827145E-2,1.4775806E-2,3.0351592E-2,2.8291894E-3,-6.022358E-2,5.0004534E-2,-2.6891609E-3,-5.1007763E-4,1.6582461E-2,2.3993326E-2,-5.5610705E-2,2.035103E-2,6.651421E-3,6.8239975E-3,-1.098849E-2,1.3550436E-3,-1.9978309E-2,6.0940214E-2,1.1823796E-3,2.0136454E-3,-1.8035281E-2,-8.380341E-4,2.754879E-2,2.1553421E-2,8.804512E-3,-7.869959E-3,8.605611E-3,-7.611251E-3,-1.2113094E-2,4.5292763E-4,-9.927686E-3,2.3957135E-2,-6.146908E-4,7.52875E-3,-7.829803E-4,-6.932259E-4,-5.259705E-3],"categories":[],"categories_nodes":[],"categories_segments":[],"categories_sizes":[],"default_left":[0,0,0,0,0,0,0,0,0,0,0,0,0,0,0,0,0,0,0,0,0,0,0,0,0,0,0,0,0,0,0,0,0,0,0,0,0,0,0,0,0],"id":31,"left_children":[1,3,5,7,-1,9,-1,11,13,15,17,19,21,-1,-1,-1,-1,-1,23,25,-1,27,29,-1,31,33,35,-1,-1,-1,37,-1,39,-1,-1,-1,-1,-1,-1,-1,-1],"loss_changes":[2.5149519E-2,2.0356996E-1,2.5310207E-2,2.6782002E-2,0E0,1.6746722E-2,0E0,8.229186E-3,1.3764429E-1,2.962904E-3,4.2608557E-3,1.7962243E-2,2.38369E-2,0E0,0E0,0E0,0E0,0E0,1.9920464E-3,8.180266E-3,0E0,9.919219E-4,5.7205805E-3,0E0,1.7054868E-4,1.0045834E-2,1.7193925E-2,0E0,0E0,0E0,4.134329E-3,0E0,3.8445822E-4,0E0,0E0,0E0,0E0,0E0,0E0,0E0,0E0],"parents":[2147483647,0,0,1,1,2,2,3,3,5,5,7,7,8,8,9,9,10,10,11,11,12,12,18,18,19,19,21,21,22,22,24,24,25,25,26,26,30,30,32,32],"right_children":[2,4,6,8,-1,10,-1,12,14,16,18,20,22,-1,-1,-1,-1,-1,24,26,-1,28,30,-1,32,34,36,-1,-1,-1,38,-1,40,-1,-1,-1,-1,-1,-1,-1,-1],"split_conditions":[1.609305E1,1.608829E1,1.6128016E1,1.6186394E1,-6.827145E-2,-5E-1,3.0351592E-2,1.6035582E1,1.5982838E1,1.6099512E1,1.6015995E1,1.602621E1,1.6054073E1,2.3993326E-2,-5.5610705E-2,2.035103E-2,6.651421E-3,6.8239975E-3,-5E-1,1.59925375E1,-1.9978309E-2,-1.8369701E-16,1.5987288E1,2.0136454E-3,1.6136917E1,1.6022005E1,1.6054073E1,2.1553421E-2,8.804512E-3,-7.869959E-3,1.6057846E1,-7.611251E-3,1.6068735E1,4.5292763E-4,-9.927686E-3,2.3957135E-2,-6.146908E-4,7.52875E-3,-7.829803E-4,-6.932259E-4,-5.259705E-3],"split_indices":[8,8,9,6,0,5,0,7,7,7,9,7,7,0,0,0,0,0,4,7,0,5,9,0,8,10,6,0,0,0,10,0,6,0,0,0,0,0,0,0,0],"split_type":[0,0,0,0,0,0,0,0,0,0,0,0,0,0,0,0,0,0,0,0,0,0,0,0,0,0,0,0,0,0,0,0,0,0,0,0,0,0,0,0,0],"sum_hessian":[2.16E2,1.87E2,2.9E1,1.84E2,3E0,2.6E1,3E0,1.78E2,6E0,8E0,1.8E1,1.44E2,3.4E1,3E0,3E0,4E0,4E0,4E0,1.4E1,1.41E2,3E0,8E0,2.6E1,4E0,1E1,1.31E2,1E1,5E0,3E0,5E0,2.1E1,3E0,7E0,1.23E2,8E0,3E0,7E0,8E0,1.3E1,3E0,4E0],"tree_param":{"num_deleted":"0","num_feature":"13","num_nodes":"41","size_leaf_vector":"0"}},{"base_weights":[-1.8149258E-4,3.093014E-3,-2.934612E-2,1.0029209E-3,2.0733643E-2,1.2247186E-2,-6.587334E-2,3.1962343E-3,-3.0700065E-2,-9.776545E-3,2.2690654E-2,2.0938499E-2,9.077084E-5,1.0638457E-2,1.685629E-2,2.4754662E-4,2.1790482E-2,-2.2600298E-3,1.4293836E-2,1.1826039E-2,-1.9380569E-3,1.42915035E-2,-1.3818914E-2,-2.0824106E-4,-2.6116459E-2,4.2229306E-2,-1.0443394E-2,-5.982781E-3,6.0165026E-3,3.1249525E-4,1.11655E-2,-6.7077256E-3,-1.7233986E-3,-9.014689E-4,6.893676E-3,-2.2592641E-2,5.232811E-4,1.6015185E-2,2.8088093E-3,-9.570867E-3,7.9167687E-4],"categories":[],"categories_nodes":[],"categories_segments":[],"categories_sizes":[],"default_left":[0,0,0,0,0,0,0,0,0,0,0,0,0,0,0,0,0,0,0,0,0,0,0,0,0,0,0,0,0,0,0,0,0,0,0,0,0,0,0,0,0],"id":32,"left_children":[1,3,5,7,-1,9,-1,11,-1,-1,13,15,17,19,-1,21,-1,23,25,-1,27,29,31,33,35,37,39,-1,-1,-1,-1,-1,-1,-1,-1,-1,-1,-1,-1,-1,-1],"loss_changes":[2.0814216E-2,2.6975965E-2,1.7676121E-1,4.3617092E-2,0E0,9.636012E-3,0E0,1.0356514E-2,0E0,0E0,5.8616437E-3,2.9932177E-2,5.407865E-3,4.782049E-3,0E0,4.346017E-3,0E0,6.798382E-3,1.6335078E-2,0E0,4.3597003E-3,3.3027797E-3,6.300651E-4,8.434246E-3,1.52072385E-2,3.5329498E-3,3.7338077E-3,0E0,0E0,0E0,0E0,0E0,0E0,0E0,0E0,0E0,0E0,0E0,0E0,0E0,0E0],"parents":[2147483647,0,0,1,1,2,2,3,3,5,5,7,7,10,10,11,11,12,12,13,13,15,15,17,17,18,18,20,20,21,21,22,22,23,23,24,24,25,25,26,26],"right_children":[2,4,6,8,-1,10,-1,12,-1,-1,14,16,18,20,-1,22,-1,24,26,-1,28,30,32,34,36,38,40,-1,-1,-1,-1,-1,-1,-1,-1,-1,-1,-1,-1,-1,-1],"split_conditions":[2.2E2,1.619026E1,1.6039991E1,1.617543E1,2.0733643E-2,1.5972082E1,-6.587334E-2,5.600251E-2,-3.0700065E-2,-9.776545E-3,1.6128016E1,1.5299817E1,1.6059574E1,1.6052423E1,1.685629E-2,1.5371777E1,2.1790482E-2,1.5963579E1,-1.8369701E-16,1.1826039E-2,2.37E2,5.294702E-2,1.5173823E1,1.5821086E1,-5E-1,6.917076E-2,1.6058847E1,-5.982781E-3,6.0165026E-3,3.1249525E-4,1.11655E-2,-6.7077256E-3,-1.7233986E-3,-9.014689E-4,6.893676E-3,-2.2592641E-2,5.232811E-4,1.6015185E-2,2.8088093E-3,-9.570867E-3,7.9167687E-4],"split_indices":[1,6,11,6,0,8,0,12,0,0,9,8,10,7,0,10,0,11,5,0,1,12,8,11,5,12,6,0,0,0,0,0,0,0,0,0,0,0,0,0,0],"split_type":[0,0,0,0,0,0,0,0,0,0,0,0,0,0,0,0,0,0,0,0,0,0,0,0,0,0,0,0,0,0,0,0,0,0,0,0,0,0,0,0,0],"sum_hessian":[2.16E2,1.95E2,2.1E1,1.9E2,5E0,1.8E1,3E0,1.87E2,3E0,3E0,1.5E1,2.7E1,1.6E2,1.2E1,3E0,2E1,7E0,1.38E2,2.2E1,3E0,9E0,1E1,1E1,1.28E2,1E1,1E1,1.2E1,5E0,4E0,7E0,3E0,4E0,6E0,1.15E2,1.3E1,3E0,7E0,7E0,3E0,4E0,8E0],"tree_param":{"num_deleted":"0","num_feature":"13","num_nodes":"41","size_leaf_vector":"0"}},{"base_weights":[-3.026048E-4,2.5516825E-3,-3.0181583E-2,5.4135807E-3,-3.8811903E-2,1.6637862E-2,-6.297419E-2,2.6203508E-3,6.0366314E-2,-3.9543346E-2,2.268982E-3,6.3040075E-3,1.3819028E-2,1.5396414E-2,1.4931634E-4,-2.339244E-3,2.8724339E-2,5.975533E-3,-5.8092503E-3,2.0889388E-2,-6.3631446E-3,3.1830015E-4,4.8867967E-2,-2.1341592E-3,1.2321631E-2,1.1204339E-2,7.593155E-5,6.43919E-3,-5.919737E-3,1.959877E-2,3.587723E-3,1.8625178E-4,-2.458032E-2,9.696007E-4,1.6579628E-2,6.085805E-4,-3.131884E-3,-7.9398946E-4,5.88789E-3,-4.3566228E-4,-1.7000772E-2,1.0052919E-2,-3.6333278E-3],"categories":[],"categories_nodes":[],"categories_segments":[],"categories_sizes":[],"default_left":[0,0,0,0,0,0,0,0,0,0,0,0,0,0,0,0,0,0,0,0,0,0,0,0,0,0,0,0,0,0,0,0,0,0,0,0,0,0,0,0,0,0,0],"id":33,"left_children":[1,3,5,7,9,11,-1,13,15,-1,17,19,-1,21,23,-1,-1,-1,-1,25,-1,27,29,31,33,-1,-1,-1,35,-1,-1,37,39,41,-1,-1,-1,-1,-1,-1,-1,-1,-1],"loss_changes":[1.8583467E-2,2.3767406E-2,1.6337696E-1,2.8545499E-2,4.996546E-2,4.574888E-3,0E0,5.6487476E-3,2.245221E-2,0E0,4.203838E-3,5.660095E-3,0E0,1.4620394E-2,4.2233686E-3,0E0,0E0,0E0,0E0,3.0473098E-3,0E0,2.8971175E-3,4.686825E-3,6.6713705E-3,1.1646398E-2,0E0,0E0,0E0,6.3191145E-4,0E0,0E0,6.4952956E-3,8.823577E-3,8.918788E-3,0E0,0E0,0E0,0E0,0E0,0E0,0E0,0E0,0E0],"parents":[2147483647,0,0,1,1,2,2,3,3,4,4,5,5,7,7,8,8,10,10,11,11,13,13,14,14,19,19,21,21,22,22,23,23,24,24,28,28,31,31,32,32,33,33],"right_children":[2,4,6,8,10,12,-1,14,16,-1,18,20,-1,22,24,-1,-1,-1,-1,26,-1,28,30,32,34,-1,-1,-1,36,-1,-1,38,40,42,-1,-1,-1,-1,-1,-1,-1,-1,-1],"split_conditions":[2.23E2,2.0821438E0,1.5779734E1,1.6156044E1,1.607262E1,1.6068735E1,-6.297419E-2,5.6111E-2,-5E-1,-3.9543346E-2,1.6144533E1,5E-1,1.3819028E-2,1.5299817E1,1.6059574E1,-2.339244E-3,2.8724339E-2,5.975533E-3,-5.8092503E-3,2.33E2,-6.3631446E-3,5.8E1,1.602121E1,1.5963579E1,1.86E2,1.1204339E-2,7.593155E-5,6.43919E-3,1.5371777E1,1.959877E-2,3.587723E-3,1.5765058E1,5E-1,1.6064323E1,1.6579628E-2,6.085805E-4,-3.131884E-3,-7.9398946E-4,5.88789E-3,-4.3566228E-4,-1.7000772E-2,1.0052919E-2,-3.6333278E-3],"split_indices":[1,12,11,6,8,8,0,12,4,0,7,5,0,8,10,0,0,0,0,1,0,1,6,11,1,0,0,0,10,0,0,11,4,10,0,0,0,0,0,0,0,0,0],"split_type":[0,0,0,0,0,0,0,0,0,0,0,0,0,0,0,0,0,0,0,0,0,0,0,0,0,0,0,0,0,0,0,0,0,0,0,0,0,0,0,0,0,0,0],"sum_hessian":[2.16E2,1.98E2,1.8E1,1.86E2,1.2E1,1.5E1,3E0,1.78E2,8E0,3E0,9E0,1.2E1,3E0,2.8E1,1.5E2,3E0,5E0,5E0,4E0,8E0,4E0,2E1,8E0,1.27E2,2.3E1,4E0,4E0,4E0,1.6E1,5E0,3E0,1.16E2,1.1E1,1.9E1,4E0,6E0,1E1,1.02E2,1.4E1,7E0,4E0,5E0,1.4E1],"tree_param":{"num_deleted":"0","num_feature":"13","num_nodes":"43","size_leaf_vector":"0"}},{"base_weights":[-3.0144458E-4,-2.6874369E-2,2.6827685E-3,7.551394E-3,-5.5103447E-2,-8.303708E-4,2.914379E-2,-2.179563E-3,1.3376213E-2,1.9781576E-3,-2.3939658E-2,1.5058568E-2,2.3051662E-2,4.247332E-3,-1.0892695E-2,7.59435E-4,1.5618182E-2,2.9711962E-2,4.0347576E-3,-4.552317E-3,-1.4386654E-3,-8.3191395E-3,1.4539146E-3,1.2560121E-2,2.1270276E-3,1.0955704E-2,-3.7638189E-3,2.4762018E-2,4.0543915E-4,8.515434E-3,-2.599354E-3,3.614545E-3,9.385515E-3,9.004069E-3,-1.09870714E-4],"categories":[],"categories_nodes":[],"categories_segments":[],"categories_sizes":[],"default_left":[0,0,0,0,0,0,0,0,0,0,0,0,0,0,0,0,0,0,0,0,0,0,0,0,0,0,0,0,0,0,0,0,0,0,0],"id":34,"left_children":[1,3,5,7,-1,9,11,13,-1,15,-1,17,-1,-1,19,21,-1,23,25,-1,-1,-1,27,-1,-1,29,-1,31,33,-1,-1,-1,-1,-1,-1],"loss_changes":[1.7280038E-2,1.2014501E-1,1.8244606E-2,6.9446964E-3,0E0,3.8748484E-2,1.429422E-2,2.4318057E-3,0E0,1.027565E-2,0E0,2.9493081E-3,0E0,0E0,2.1439756E-4,3.3247361E-3,0E0,1.9029276E-3,1.5145107E-3,0E0,0E0,0E0,3.97335E-3,0E0,0E0,3.323601E-3,0E0,2.0357827E-4,3.5981033E-3,0E0,0E0,0E0,0E0,0E0,0E0],"parents":[2147483647,0,0,1,1,2,2,3,3,5,5,6,6,7,7,9,9,11,11,14,14,15,15,17,17,18,18,22,22,25,25,27,27,28,28],"right_children":[2,4,6,8,-1,10,12,14,-1,16,-1,18,-1,-1,20,22,-1,24,26,-1,-1,-1,28,-1,-1,30,-1,32,34,-1,-1,-1,-1,-1,-1],"split_conditions":[5.3573843E-2,2.013E3,2.18E2,1.5286749E1,-5.5103447E-2,1.6186394E1,1.6151592E1,-5E-1,1.3376213E-2,1.6172947E1,-2.3939658E-2,6.7813314E-2,2.3051662E-2,4.247332E-3,1.5173823E1,1.4949838E1,1.5618182E-2,1.6099512E1,4E0,-4.552317E-3,-1.4386654E-3,-8.3191395E-3,5.600251E-2,1.2560121E-2,2.1270276E-3,1.5768465E1,-3.7638189E-3,2.008E3,1.5016098E1,8.515434E-3,-2.599354E-3,3.614545E-3,9.385515E-3,9.004069E-3,-1.09870714E-4],"split_indices":[12,0,1,8,0,6,6,4,0,6,0,12,0,0,8,8,0,6,2,0,0,0,12,0,0,11,0,0,8,0,0,0,0,0,0],"split_type":[0,0,0,0,0,0,0,0,0,0,0,0,0,0,0,0,0,0,0,0,0,0,0,0,0,0,0,0,0,0,0,0,0,0,0],"sum_hessian":[2.16E2,2.1E1,1.95E2,1.8E1,3E0,1.73E2,2.2E1,1.5E1,3E0,1.68E2,5E0,1.8E1,4E0,5E0,1E1,1.65E2,3E0,7E0,1.1E1,5E0,5E0,3E0,1.62E2,4E0,3E0,8E0,3E0,6E0,1.56E2,4E0,4E0,3E0,3E0,3E0,1.53E2],"tree_param":{"num_deleted":"0","num_feature":"13","num_nodes":"35","size_leaf_vector":"0"}},{"base_weights":[-2.0320734E-4,2.258919E-3,-2.5980046E-2,8.031363E-4,1.4685823E-2,-5.0060894E-2,1.0866106E-2,2.72436E-3,-1.795478E-2,-1.5708749E-3,9.556866E-3,1.9006113E-3,1.2104274E-2,9.188056E-3,-6.8088057E-3,1.3375052E-2,-2.1748603E-4,4.900761E-3,-6.1311724E-4,6.725675E-5,4.2940456E-2,2.0107746E-2,-1.2928792E-3,-1.6720713E-3,4.5294766E-3,1.6545344E-2,4.166794E-3,9.428158E-3,2.7945044E-4,-8.78296E-3,1.4321122E-4],"categories":[],"categories_nodes":[],"categories_segments":[],"categories_sizes":[],"default_left":[0,0,0,0,0,0,0,0,0,0,0,0,0,0,0,0,0,0,0,0,0,0,0,0,0,0,0,0,0,0,0],"id":35,"left_children":[1,3,5,7,-1,-1,9,11,-1,13,-1,15,-1,17,-1,19,21,-1,-1,23,25,27,29,-1,-1,-1,-1,-1,-1,-1,-1],"loss_changes":[1.38307735E-2,1.3487918E-2,1.00446776E-1,2.2769252E-2,0E0,0E0,4.2269006E-3,5.7808165E-3,0E0,2.7086558E-3,0E0,4.5234496E-3,0E0,6.756473E-4,0E0,1.1407172E-2,3.4795003E-3,0E0,0E0,1.8646836E-3,2.4266E-3,1.7072412E-3,7.494222E-3,0E0,0E0,0E0,0E0,0E0,0E0,0E0,0E0],"parents":[2147483647,0,0,1,1,2,2,3,3,6,6,7,7,9,9,11,11,13,13,15,15,16,16,19,19,20,20,21,21,22,22],"right_children":[2,4,6,8,-1,-1,10,12,-1,14,-1,16,-1,18,-1,20,22,-1,-1,24,26,28,30,-1,-1,-1,-1,-1,-1,-1,-1],"split_conditions":[2.23E2,2.18E2,1.603222E1,1.6186394E1,1.4685823E-2,-5.0060894E-2,1.6052423E1,1.6172947E1,-1.795478E-2,5E-1,9.556866E-3,5.6111E-2,1.2104274E-2,1.5474025E1,-6.8088057E-3,1.5299817E1,3.2E1,4.900761E-3,-6.1311724E-4,5.3374033E-2,2.1E2,8.660254E-1,4E1,-1.6720713E-3,4.5294766E-3,1.6545344E-2,4.166794E-3,9.428158E-3,2.7945044E-4,-8.78296E-3,1.4321122E-4],"split_indices":[1,1,6,6,0,0,8,6,0,5,0,12,0,10,0,8,1,0,0,12,1,4,1,0,0,0,0,0,0,0,0],"split_type":[0,0,0,0,0,0,0,0,0,0,0,0,0,0,0,0,0,0,0,0,0,0,0,0,0,0,0,0,0,0,0],"sum_hessian":[2.16E2,1.98E2,1.8E1,1.93E2,5E0,3E0,1.5E1,1.88E2,5E0,1E1,5E0,1.85E2,3E0,7E0,3E0,2.8E1,1.57E2,4E0,3E0,2E1,8E0,7E0,1.5E2,1.5E1,5E0,5E0,3E0,4E0,3E0,8E0,1.42E2],"tree_param":{"num_deleted":"0","num_feature":"13","num_nodes":"31","size_leaf_vector":"0"}},{"base_weights":[-1.8622579E-4,-1.5262405E-3,4.023225E-2,-5.5592795E-5,-2.3285508E-2,2.2127368E-2,-1.005435E-3,2.6608757E-3,-2.0046577E-2,-6.678502E-4,1.4287111E-2,-4.6174552E-2,5.204374E-3,1.2640343E-3,-2.2023916E-2,3.4864426E-2,6.524609E-3,-1.8116633E-3,8.82637E-3,-6.371653E-4,1.5018654E-2,3.1852725E-4,-3.866536E-2,4.7350405E-3,1.4440394E-2,-1.0726669E-2,1.5250297E-2,-1.1964035E-2,9.670045E-3,1.693264E-4,-7.6091294E-3,-1.4774967E-2,-5.5243494E-3,-1.6661883E-4,-8.516264E-3,8.790458E-3,1.8395152E-3,-7.461548E-4,-5.3602224E-3,4.3872837E-3,-5.3644184E-5],"categories":[],"categories_nodes":[],"categories_segments":[],"categories_sizes":[],"default_left":[0,0,0,0,0,0,0,0,0,0,0,0,0,0,0,0,0,0,0,0,0,0,0,0,0,0,0,0,0,0,0,0,0,0,0,0,0,0,0,0,0],"id":36,"left_children":[1,3,5,7,-1,-1,-1,9,11,13,15,-1,17,19,21,23,25,27,-1,29,-1,-1,31,-1,-1,33,35,37,39,-1,-1,-1,-1,-1,-1,-1,-1,-1,-1,-1,-1],"loss_changes":[1.1814417E-2,2.3607576E-2,1.0475394E-2,1.1348756E-2,0E0,0E0,0E0,7.130444E-3,8.530877E-2,5.968912E-3,6.321513E-3,0E0,3.7912424E-3,1.2370975E-2,4.6512014E-3,2.0255614E-3,4.8299916E-3,2.2138911E-3,0E0,3.8470547E-3,0E0,0E0,5.935086E-4,0E0,0E0,1.9602035E-3,2.5110035E-3,5.150143E-4,4.417569E-4,0E0,0E0,0E0,0E0,0E0,0E0,0E0,0E0,0E0,0E0,0E0,0E0],"parents":[2147483647,0,0,1,1,2,2,3,3,7,7,8,8,9,9,10,10,12,12,13,13,14,14,15,15,16,16,17,17,19,19,22,22,25,25,26,26,27,27,28,28],"right_children":[2,4,6,8,-1,-1,-1,10,12,14,16,-1,18,20,22,24,26,28,-1,30,-1,-1,32,-1,-1,34,36,38,40,-1,-1,-1,-1,-1,-1,-1,-1,-1,-1,-1,-1],"split_conditions":[1.619026E1,1.6181473E1,7.394199E-2,1.6105661E1,-2.3285508E-2,2.2127368E-2,-1.005435E-3,1.599962E1,5.7897206E-2,1.602121E1,1.6006353E1,-4.6174552E-2,1.6109169E1,1.599962E1,1.6025402E1,6.7813314E-2,1.6070522E1,4E0,8.82637E-3,1.5973165E1,1.5018654E-2,3.1852725E-4,1.6031229E1,4.7350405E-3,1.4440394E-2,8.660254E-1,1.77E2,1.6151592E1,-2.4492937E-16,1.693264E-4,-7.6091294E-3,-1.4774967E-2,-5.5243494E-3,-1.6661883E-4,-8.516264E-3,8.790458E-3,1.8395152E-3,-7.461548E-4,-5.3602224E-3,4.3872837E-3,-5.3644184E-5],"split_indices":[6,6,12,7,0,0,0,8,12,7,6,0,10,7,10,12,6,2,0,7,0,0,7,0,0,4,1,8,4,0,0,0,0,0,0,0,0,0,0,0,0],"split_type":[0,0,0,0,0,0,0,0,0,0,0,0,0,0,0,0,0,0,0,0,0,0,0,0,0,0,0,0,0,0,0,0,0,0,0,0,0,0,0,0,0],"sum_hessian":[2.16E2,2.1E2,6E0,2.07E2,3E0,3E0,3E0,1.83E2,2.4E1,1.43E2,4E1,3E0,2.1E1,1.32E2,1.1E1,1E1,3E1,1.7E1,4E0,1.28E2,4E0,5E0,6E0,5E0,5E0,1E1,2E1,9E0,8E0,1.23E2,5E0,3E0,3E0,7E0,3E0,7E0,1.3E1,4E0,5E0,5E0,3E0],"tree_param":{"num_deleted":"0","num_feature":"13","num_nodes":"41","size_leaf_vector":"0"}},{"base_weights":[-2.8071864E-4,3.7465037E-3,-1.2506343E-2,1.6814606E-3,4.9822263E-2,1.0435254E-3,-5.4642178E-2,1.10882595E-2,-8.9064025E-4,5.8940654E-3,2.0262623E-2,7.7838693E-3,-1.8757325E-2,-5.5544376E-3,1.9289307E-2,-9.9428855E-3,2.0726253E-3,1.6484034E-3,1.4830447E-2,-3.1644823E-3,-4.8051562E-4,2.663775E-2,-1.3125284E-3,-1.8994119E-2,2.4046216E-3,-1.4981365E-2,4.0315473E-3,1.5863355E-2,-6.0256207E-3,8.134604E-4,-1.065731E-3,1.4636136E-2,1.6069707E-2,6.8314077E-4,-1.3722181E-3,-7.391793E-3,-1.4304543E-2,5.153389E-3,-5.2225115E-3,2.7102062E-3,-1.2658883E-2,1.289219E-2,-1.7287056E-3,8.340749E-3,8.7721255E-3,-9.067853E-4,-8.817272E-3,9.199262E-3,2.5874807E-3,-8.216095E-3,2.0278932E-3,-3.7457466E-3,1.3613892E-3,-1.3006926E-3,2.723551E-3,1.9417955E-3,1.4649296E-2,-5.018145E-3,1.3895762E-3,9.018762E-4,4.242268E-3,5.0217763E-4,-4.2686462E-3],"categories":[],"categories_nodes":[],"categories_segments":[],"categories_sizes":[],"default_left":[0,0,0,0,0,0,0,0,0,0,0,0,0,0,0,0,0,0,0,0,0,0,0,0,0,0,0,0,0,0,0,0,0,0,0,0,0,0,0,0,0,0,0,0,0,0,0,0,0,0,0,0,0,0,0,0,0,0,0,0,0,0,0],"id":37,"left_children":[1,3,5,7,9,11,-1,13,15,-1,-1,17,-1,19,21,23,25,27,-1,-1,29,31,33,35,37,39,41,43,45,-1,-1,-1,47,-1,-1,49,-1,-1,51,53,-1,55,57,59,-1,61,-1,-1,-1,-1,-1,-1,-1,-1,-1,-1,-1,-1,-1,-1,-1,-1,-1],"loss_changes":[1.0730918E-2,1.5520567E-2,1.2431024E-1,3.832723E-3,2.4159234E-3,2.2338642E-2,0E0,4.747718E-3,3.3736338E-3,0E0,0E0,1.1929268E-2,0E0,2.989914E-4,3.5169646E-3,3.510239E-3,3.2341045E-3,4.6771937E-3,0E0,0E0,7.827264E-5,3.1952895E-3,9.237039E-5,5.6387363E-3,1.6672075E-3,4.9291058E-3,4.4116876E-3,1.2655687E-3,3.3222344E-3,0E0,0E0,0E0,1.1480083E-3,0E0,0E0,4.1465755E-3,0E0,0E0,7.655939E-4,3.534515E-4,0E0,7.528091E-3,5.1336526E-3,2.9783795E-4,0E0,8.489457E-4,0E0,0E0,0E0,0E0,0E0,0E0,0E0,0E0,0E0,0E0,0E0,0E0,0E0,0E0,0E0,0E0,0E0],"parents":[2147483647,0,0,1,1,2,2,3,3,4,4,5,5,7,7,8,8,11,11,13,13,14,14,15,15,16,16,17,17,20,20,21,21,22,22,23,23,24,24,25,25,26,26,27,27,28,28,32,32,35,35,38,38,39,39,41,41,42,42,43,43,45,45],"right_children":[2,4,6,8,10,12,-1,14,16,-1,-1,18,-1,20,22,24,26,28,-1,-1,30,32,34,36,38,40,42,44,46,-1,-1,-1,48,-1,-1,50,-1,-1,52,54,-1,56,58,60,-1,62,-1,-1,-1,-1,-1,-1,-1,-1,-1,-1,-1,-1,-1,-1,-1,-1,-1],"split_conditions":[1.88E2,1.6156044E1,1.6043434E1,6.0801376E-2,1.6041107E1,1.6135242E1,-5.4642178E-2,4.8957918E-2,-5E-1,5.8940654E-3,2.0262623E-2,1.6122135E1,-1.8757325E-2,1.5173823E1,4E0,1.18E2,1.5062464E1,1.6008093E1,1.4830447E-2,-3.1644823E-3,2.007E3,5.2817263E-2,-2.4492937E-16,1.5388442E1,2.011E3,1.4988656E1,9.9E1,2.11E2,8.660254E-1,8.134604E-4,-1.065731E-3,1.4636136E-2,1.510267E1,6.8314077E-4,-1.3722181E-3,4.6E1,-1.4304543E-2,5.153389E-3,1.6056267E1,8.660254E-1,-1.2658883E-2,1.54425535E1,1.5596879E1,5E-1,8.7721255E-3,1.6135345E1,-8.817272E-3,9.199262E-3,2.5874807E-3,-8.216095E-3,2.0278932E-3,-3.7457466E-3,1.3613892E-3,-1.3006926E-3,2.723551E-3,1.9417955E-3,1.4649296E-2,-5.018145E-3,1.3895762E-3,9.018762E-4,4.242268E-3,5.0217763E-4,-4.2686462E-3],"split_indices":[1,6,11,12,7,9,0,12,4,0,0,9,0,8,2,1,7,6,0,0,0,12,4,7,0,7,1,1,4,0,0,0,7,0,0,1,0,0,10,4,0,6,7,4,0,6,0,0,0,0,0,0,0,0,0,0,0,0,0,0,0,0,0],"split_type":[0,0,0,0,0,0,0,0,0,0,0,0,0,0,0,0,0,0,0,0,0,0,0,0,0,0,0,0,0,0,0,0,0,0,0,0,0,0,0,0,0,0,0,0,0,0,0,0,0,0,0,0,0,0,0,0,0,0,0,0,0,0,0],"sum_hessian":[2.16E2,1.63E2,5.3E1,1.57E2,6E0,5E1,3E0,3.3E1,1.24E2,3E0,3E0,4.6E1,4E0,1.1E1,2.2E1,3E1,9.4E1,4.1E1,5E0,5E0,6E0,1.6E1,6E0,1.7E1,1.3E1,9E0,8.5E1,1.4E1,2.7E1,3E0,3E0,4E0,1.2E1,3E0,3E0,1.3E1,4E0,4E0,9E0,6E0,3E0,3.3E1,5.2E1,1E1,4E0,2.3E1,4E0,3E0,9E0,5E0,8E0,5E0,4E0,3E0,3E0,2.9E1,4E0,1.5E1,3.7E1,6E0,4E0,2E1,3E0],"tree_param":{"num_deleted":"0","num_feature":"13","num_nodes":"63","size_leaf_vector":"0"}},{"base_weights":[-3.1062536E-4,-1.4795467E-3,3.4968376E-2,-4.9608946E-4,-1.567483E-2,1.861496E-2,-2.5656226E-4,1.5717E-3,-2.3820765E-2,-1.2129003E-4,1.1492116E-2,9.386131E-3,-4.0226914E-2,8.4658264E-4,-7.773304E-3,2.2942988E-2,-1.5975407E-3,6.975985E-3,-9.015401E-4,2.6820197E-3,-9.172058E-3,5.534172E-3,3.748393E-2,-3.011656E-3,1.6172583E-3,2.041626E-3,-2.5284577E-3,3.5024947E-4,1.5710808E-2,-6.4388756E-3,-9.599686E-4,6.5451623E-3,-4.8609497E-3,1.4295273E-2,4.6212673E-3,2.4727823E-3,-1.5832902E-3],"categories":[],"categories_nodes":[],"categories_segments":[],"categories_sizes":[],"default_left":[0,0,0,0,0,0,0,0,0,0,0,0,0,0,0,0,0,0,0,0,0,0,0,0,0,0,0,0,0,0,0,0,0,0,0,0,0],"id":38,"left_children":[1,3,5,7,-1,-1,-1,9,11,13,15,17,-1,19,-1,21,23,-1,25,27,29,31,33,-1,35,-1,-1,-1,-1,-1,-1,-1,-1,-1,-1,-1,-1],"loss_changes":[9.000464E-3,1.0509311E-2,6.8441574E-3,1.0069386E-2,0E0,0E0,0E0,3.2260655E-3,6.35073E-2,4.1405284E-3,4.2335168E-3,2.0182137E-3,0E0,2.966773E-3,0E0,3.5896655E-3,3.961551E-4,0E0,5.7942583E-4,1.0173204E-2,1.7663965E-3,3.1851064E-3,1.0618456E-3,0E0,5.4599316E-4,0E0,0E0,0E0,0E0,0E0,0E0,0E0,0E0,0E0,0E0,0E0,0E0],"parents":[2147483647,0,0,1,1,2,2,3,3,7,7,8,8,9,9,10,10,11,11,13,13,15,15,16,16,18,18,19,19,20,20,21,21,22,22,24,24],"right_children":[2,4,6,8,-1,-1,-1,10,12,14,16,18,-1,20,-1,22,24,-1,26,28,30,32,34,-1,36,-1,-1,-1,-1,-1,-1,-1,-1,-1,-1,-1,-1],"split_conditions":[1.619026E1,1.6181473E1,7.394199E-2,2.23E2,-1.567483E-2,1.861496E-2,-2.5656226E-4,1.6059574E1,1.5779734E1,1.605633E1,1.608916E1,1.6071783E1,-4.0226914E-2,1.6026361E1,-7.773304E-3,1.6058847E1,1.6086609E1,6.975985E-3,2.1899762E0,1.6023184E1,1.6052597E1,1.6034998E1,1.608829E1,-3.011656E-3,1.6061327E1,2.041626E-3,-2.5284577E-3,3.5024947E-4,1.5710808E-2,-6.4388756E-3,-9.599686E-4,6.5451623E-3,-4.8609497E-3,1.4295273E-2,4.6212673E-3,2.4727823E-3,-1.5832902E-3],"split_indices":[6,6,12,1,0,0,0,10,11,10,9,6,0,6,0,6,6,0,12,10,6,9,6,0,8,0,0,0,0,0,0,0,0,0,0,0,0],"split_type":[0,0,0,0,0,0,0,0,0,0,0,0,0,0,0,0,0,0,0,0,0,0,0,0,0,0,0,0,0,0,0,0,0,0,0,0,0],"sum_hessian":[2.16E2,2.1E2,6E0,2.07E2,3E0,3E0,3E0,1.91E2,1.6E1,1.64E2,2.7E1,1.3E1,3E0,1.59E2,5E0,1.4E1,1.3E1,5E0,8E0,1.35E2,2.4E1,7E0,7E0,3E0,1E1,4E0,4E0,1.32E2,3E0,7E0,1.7E1,4E0,3E0,4E0,3E0,5E0,5E0],"tree_param":{"num_deleted":"0","num_feature":"13","num_nodes":"37","size_leaf_vector":"0"}},{"base_weights":[-2.7120387E-4,-3.7296799E-3,9.983392E-3,-2.7673086E-4,-4.0459156E-2,5.6299246E-3,1.9224787E-2,1.95788E-3,-4.6206336E-2,-4.1320976E-3,-3.9073136E-2,-7.3524583E-3,1.2145723E-2,2.2869922E-4,1.8726612E-2,-2.405963E-2,-1.9869805E-4,9.837866E-3,-9.3117E-3,-1.6825745E-2,6.1929706E-3,1.817183E-2,1.8085752E-3,2.5875107E-3,-9.383202E-3,-2.6465894E-3,6.839447E-3,-1.4543153E-3,-2.1132182E-2,5.443096E-3,1.0785898E-2,-4.3551703E-3,5.49202E-3,2.4977956E-2,1.1123198E-3,-2.704533E-2,3.6361357E-3,-7.966355E-3,-1.9080163E-3,-1.0457039E-3,9.363174E-3,5.654812E-4,-6.930828E-3,1.0315991E-2,2.797437E-3,-1.6484642E-4,5.8359783E-3,-2.2137961E-3,-1.9359756E-2,5.679521E-3,-6.2757763E-3,7.8983314E-4,4.6701054E-3,-1.0772324E-3,-2.8119565E-3],"categories":[],"categories_nodes":[],"categories_segments":[],"categories_sizes":[],"default_left":[0,0,0,0,0,0,0,0,0,0,0,0,0,0,0,0,0,0,0,0,0,0,0,0,0,0,0,0,0,0,0,0,0,0,0,0,0,0,0,0,0,0,0,0,0,0,0,0,0,0,0,0,0,0,0],"id":39,"left_children":[1,3,5,7,9,11,-1,13,15,17,-1,19,21,23,-1,-1,-1,25,-1,27,-1,29,31,33,35,-1,-1,-1,37,39,-1,41,-1,43,45,47,49,-1,-1,-1,51,-1,53,-1,-1,-1,-1,-1,-1,-1,-1,-1,-1,-1,-1],"loss_changes":[7.7331993E-3,2.0661281E-2,1.25927795E-2,1.5485687E-2,4.512437E-2,4.488012E-3,0E0,1.5041424E-2,1.0783942E-2,4.44013E-3,0E0,5.1211393E-3,2.1473817E-3,3.2211246E-3,0E0,0E0,0E0,2.1358193E-3,0E0,6.1971415E-4,0E0,4.783601E-3,1.503395E-3,3.7376573E-3,6.5369178E-3,0E0,0E0,0E0,6.321054E-4,5.2265805E-4,0E0,1.8986037E-4,0E0,7.102811E-4,3.3024342E-3,8.370477E-3,6.7810575E-3,0E0,0E0,0E0,3.7655875E-4,0E0,3.1603908E-5,0E0,0E0,0E0,0E0,0E0,0E0,0E0,0E0,0E0,0E0,0E0,0E0],"parents":[2147483647,0,0,1,1,2,2,3,3,4,4,5,5,7,7,8,8,9,9,11,11,12,12,13,13,17,17,19,19,21,21,22,22,23,23,24,24,28,28,29,29,31,31,33,33,34,34,35,35,36,36,40,40,42,42],"right_children":[2,4,6,8,10,12,-1,14,16,18,-1,20,22,24,-1,-1,-1,26,-1,28,-1,30,32,34,36,-1,-1,-1,38,40,-1,42,-1,44,46,48,50,-1,-1,-1,52,-1,54,-1,-1,-1,-1,-1,-1,-1,-1,-1,-1,-1,-1],"split_conditions":[8.660254E-1,1.6105661E1,1.6172947E1,1.6139841E1,2.017E3,-2.4492937E-16,1.9224787E-2,1.6156044E1,1.619026E1,1.6064083E1,-3.9073136E-2,1.6091278E1,1.6008093E1,5E-1,1.8726612E-2,-2.405963E-2,-1.9869805E-4,1.5977433E1,-9.3117E-3,6.091589E-2,6.1929706E-3,1.5455433E1,1.6068472E1,1.5035794E1,6.938264E-2,-2.6465894E-3,6.839447E-3,-1.4543153E-3,7.974232E-2,1.5121203E1,1.0785898E-2,1.5746432E1,5.49202E-3,1.5246542E1,2.22E2,6.3471474E-2,8.9746766E-2,-7.966355E-3,-1.9080163E-3,-1.0457039E-3,7.696505E-2,5.654812E-4,2.015E3,1.0315991E-2,2.797437E-3,-1.6484642E-4,5.8359783E-3,-2.2137961E-3,-1.9359756E-2,5.679521E-3,-6.2757763E-3,7.8983314E-4,4.6701054E-3,-1.0772324E-3,-2.8119565E-3],"split_indices":[5,7,6,9,0,4,0,6,6,6,0,6,6,5,0,0,0,6,0,12,0,7,10,8,12,0,0,0,12,8,0,11,0,6,1,12,12,0,0,0,12,0,0,0,0,0,0,0,0,0,0,0,0,0,0],"split_type":[0,0,0,0,0,0,0,0,0,0,0,0,0,0,0,0,0,0,0,0,0,0,0,0,0,0,0,0,0,0,0,0,0,0,0,0,0,0,0,0,0,0,0,0,0,0,0,0,0,0,0,0,0,0,0],"sum_hessian":[2.16E2,1.62E2,5.4E1,1.49E2,1.3E1,5.1E1,3E0,1.43E2,6E0,1E1,3E0,1.7E1,3.4E1,1.4E2,3E0,3E0,3E0,7E0,3E0,1.3E1,4E0,2.1E1,1.3E1,1.13E2,2.7E1,3E0,4E0,4E0,9E0,1.3E1,8E0,1E1,3E0,6E0,1.07E2,1.1E1,1.6E1,6E0,3E0,4E0,9E0,3E0,7E0,3E0,3E0,9.9E1,8E0,8E0,3E0,1E1,6E0,5E0,4E0,4E0,3E0],"tree_param":{"num_deleted":"0","num_feature":"13","num_nodes":"55","size_leaf_vector":"0"}},{"base_weights":[-2.896577E-4,-1.0467467E-3,1.20861055E-2,3.6801334E-4,-1.5045929E-2,2.6195801E-3,-1.7954204E-2,1.1617914E-3,1.1981883E-2,-3.8535908E-2,5.043268E-3,4.2634852E-5,1.6919693E-2,1.7432077E-2,-1.5113695E-3,1.0147666E-3,-1.2166358E-2,6.035275E-3,1.1153913E-2,9.020377E-3,1.3146401E-4,-4.5746025E-3,2.187109E-3,-3.9182664E-4,2.0387294E-3,-1.4586211E-3,3.688288E-3,1.2159348E-6,-1.8876315E-3],"categories":[],"categories_nodes":[],"categories_segments":[],"categories_sizes":[],"default_left":[0,0,0,0,0,0,0,0,0,0,0,0,0,0,0,0,0,0,0,0,0,0,0,0,0,0,0,0,0],"id":40,"left_children":[1,3,-1,5,-1,7,9,11,-1,-1,13,15,17,19,21,23,-1,25,-1,-1,-1,27,-1,-1,-1,-1,-1,-1,-1],"loss_changes":[6.708444E-3,1.488583E-2,0E0,8.669055E-3,0E0,1.0127282E-2,5.9095267E-2,3.1913144E-3,0E0,0E0,1.6504292E-3,6.7503364E-3,2.4218317E-3,1.4899466E-3,4.1081512E-4,2.2494914E-3,0E0,6.7363575E-4,0E0,0E0,0E0,8.6527856E-5,0E0,0E0,0E0,0E0,0E0,0E0,0E0],"parents":[2147483647,0,0,1,1,3,3,5,5,6,6,7,7,10,10,11,11,12,12,13,13,14,14,15,15,17,17,21,21],"right_children":[2,4,-1,6,-1,8,10,12,-1,-1,14,16,18,20,22,24,-1,26,-1,-1,-1,28,-1,-1,-1,-1,-1,-1,-1],"split_conditions":[1.6169376E1,1.6186394E1,1.20861055E-2,1.604721E1,-1.5045929E-2,1.6122135E1,1.603222E1,1.605917E1,1.1981883E-2,-3.8535908E-2,1.608916E1,1.602417E1,1.6043482E1,1.608829E1,6.763232E-2,1.5729916E1,-1.2166358E-2,1.6058847E1,1.1153913E-2,9.020377E-3,1.3146401E-4,6.0285352E-2,2.187109E-3,-3.9182664E-4,2.0387294E-3,-1.4586211E-3,3.688288E-3,1.2159348E-6,-1.8876315E-3],"split_indices":[9,6,0,11,0,9,6,10,0,0,9,11,11,6,12,8,0,6,0,0,0,12,0,0,0,0,0,0,0],"split_type":[0,0,0,0,0,0,0,0,0,0,0,0,0,0,0,0,0,0,0,0,0,0,0,0,0,0,0,0,0],"sum_hessian":[2.16E2,2.13E2,3E0,2.08E2,5E0,1.86E2,2.2E1,1.8E2,6E0,3E0,1.9E1,1.69E2,1.1E1,6E0,1.3E1,1.66E2,3E0,8E0,3E0,3E0,3E0,1E1,3E0,1.19E2,4.7E1,3E0,5E0,3E0,7E0],"tree_param":{"num_deleted":"0","num_feature":"13","num_nodes":"29","size_leaf_vector":"0"}},{"base_weights":[-2.8200634E-4,-1.2268501E-3,2.8238568E-2,-4.0396818E-4,-1.3112999E-2,1.4031888E-2,7.933617E-4,1.5131196E-3,-1.3311598E-2,6.825328E-4,2.2180285E-2,-2.958544E-2,5.8120643E-3,2.4347238E-3,-6.1991746E-3,3.313494E-3,8.331156E-3,8.489871E-3,1.0239601E-3,-5.0517154E-4,1.925818E-2,-1.6491544E-2,-1.606281E-3,2.6521683E-3,-2.1709441E-3,1.9320009E-4,-4.4632596E-3,7.975556E-3,-2.8515817E-3,-9.195543E-3,-2.2049905E-3,-3.207159E-3,3.197125E-4,8.1527716E-4,-1.2586941E-3],"categories":[],"categories_nodes":[],"categories_segments":[],"categories_sizes":[],"default_left":[0,0,0,0,0,0,0,0,0,0,0,0,0,0,0,0,0,0,0,0,0,0,0,0,0,0,0,0,0,0,0,0,0,0,0],"id":41,"left_children":[1,3,5,7,-1,-1,-1,9,11,13,15,-1,17,19,21,-1,-1,-1,23,25,27,29,31,-1,33,-1,-1,-1,-1,-1,-1,-1,-1,-1,-1],"loss_changes":[5.882249E-3,7.358609E-3,3.1968947E-3,5.1671145E-3,0E0,0E0,0E0,3.1090502E-3,4.4620253E-2,2.137313E-3,1.2901798E-4,0E0,2.4474903E-3,6.9834758E-3,1.6752931E-3,0E0,0E0,0E0,5.186582E-4,2.0080546E-3,4.6784496E-3,1.1986285E-3,6.424914E-4,0E0,1.5986948E-4,0E0,0E0,0E0,0E0,0E0,0E0,0E0,0E0,0E0,0E0],"parents":[2147483647,0,0,1,1,2,2,3,3,7,7,8,8,9,9,10,10,12,12,13,13,14,14,18,18,19,19,20,20,21,21,22,22,24,24],"right_children":[2,4,6,8,-1,-1,-1,10,12,14,16,-1,18,20,22,-1,-1,-1,24,26,28,30,32,-1,34,-1,-1,-1,-1,-1,-1,-1,-1,-1,-1],"split_conditions":[1.619026E1,1.6181473E1,1.5957663E1,1.6043941E1,-1.3112999E-2,1.4031888E-2,7.933617E-4,1.6069105E1,1.6048315E1,1.6031229E1,2.38E2,-2.958544E-2,1.6069374E1,1.57307625E1,-1.8369701E-16,3.313494E-3,8.331156E-3,8.489871E-3,1.608916E1,1.5639199E1,1.6051468E1,6.188492E-2,1.54E2,2.6521683E-3,-1.8369701E-16,1.9320009E-4,-4.4632596E-3,7.975556E-3,-2.8515817E-3,-9.195543E-3,-2.2049905E-3,-3.207159E-3,3.197125E-4,8.1527716E-4,-1.2586941E-3],"split_indices":[6,6,8,11,0,0,0,10,9,6,1,0,9,11,5,0,0,0,9,11,9,12,1,0,5,0,0,0,0,0,0,0,0,0,0],"split_type":[0,0,0,0,0,0,0,0,0,0,0,0,0,0,0,0,0,0,0,0,0,0,0,0,0,0,0,0,0,0,0,0,0,0,0],"sum_hessian":[2.16E2,2.1E2,6E0,2.07E2,3E0,3E0,3E0,1.81E2,2.6E1,1.75E2,6E0,4E0,2.2E1,1.4E2,3.5E1,3E0,3E0,3E0,1.9E1,1.2E2,2E1,1E1,2.5E1,5E0,1.4E1,1.12E2,8E0,1.6E1,4E0,3E0,7E0,5E0,2E1,4E0,1E1],"tree_param":{"num_deleted":"0","num_feature":"13","num_nodes":"35","size_leaf_vector":"0"}},{"base_weights":[-2.849904E-4,-1.4325064E-3,2.1335082E-2,8.7642146E-4,-1.8276557E-2,1.2710381E-2,-9.760857E-4,2.2922568E-3,-1.8916585E-2,1.2920987E-3,-3.640051E-2,1.0477433E-3,1.7036676E-2,3.78891E-3,-1.9290182E-3,-8.188884E-5,1.5304785E-2,7.572174E-5,-2.6893616E-3,4.787916E-4,-6.8306928E-3,7.058525E-3,9.628273E-3,-1.7225959E-3,1.205063E-3,4.0787063E-3,-8.726677E-5,-1.9152506E-4,5.6290627E-3,-1.7049981E-3,4.0577483E-4],"categories":[],"categories_nodes":[],"categories_segments":[],"categories_sizes":[],"default_left":[0,0,0,0,0,0,0,0,0,0,0,0,0,0,0,0,0,0,0,0,0,0,0,0,0,0,0,0,0,0,0],"id":42,"left_children":[1,3,5,7,9,-1,-1,11,-1,13,-1,15,-1,-1,17,19,21,23,-1,25,-1,27,-1,29,-1,-1,-1,-1,-1,-1,-1],"loss_changes":[5.4141977E-3,8.066599E-3,5.826724E-3,1.6709106E-2,5.0574675E-2,0E0,0E0,1.21484315E-2,0E0,8.2779716E-4,0E0,2.851876E-3,0E0,0E0,2.5455782E-4,2.1097355E-3,1.5733144E-3,1.13231166E-4,0E0,1.6394783E-3,0E0,9.129073E-4,0E0,1.4166666E-4,0E0,0E0,0E0,0E0,0E0,0E0,0E0],"parents":[2147483647,0,0,1,1,2,2,3,3,4,4,7,7,9,9,11,11,14,14,15,15,16,16,17,17,19,19,21,21,23,23],"right_children":[2,4,6,8,10,-1,-1,12,-1,14,-1,16,-1,-1,18,20,22,24,-1,26,-1,28,-1,30,-1,-1,-1,-1,-1,-1,-1],"split_conditions":[1.6172947E1,1.604721E1,1.6139235E1,1.6135242E1,1.86E2,1.2710381E-2,-9.760857E-4,1.6151592E1,-1.8916585E-2,1.6083502E1,-3.640051E-2,1.605917E1,1.7036676E-2,3.78891E-3,1.83E2,1.602417E1,1.6043482E1,1.78E2,-2.6893616E-3,3.3E1,-6.8306928E-3,1.6097166E1,9.628273E-3,1.602121E1,1.205063E-3,4.0787063E-3,-8.726677E-5,-1.9152506E-4,5.6290627E-3,-1.7049981E-3,4.0577483E-4],"split_indices":[7,11,8,9,1,0,0,6,0,9,0,10,0,0,1,11,11,1,0,1,0,7,0,8,0,0,0,0,0,0,0],"split_type":[0,0,0,0,0,0,0,0,0,0,0,0,0,0,0,0,0,0,0,0,0,0,0,0,0,0,0,0,0,0,0],"sum_hessian":[2.16E2,2.06E2,1E1,1.82E2,2.4E1,5E0,5E0,1.79E2,3E0,2.1E1,3E0,1.76E2,3E0,4E0,1.7E1,1.64E2,1.2E1,1.4E1,3E0,1.61E2,3E0,9E0,3E0,1E1,4E0,8E0,1.53E2,6E0,3E0,4E0,6E0],"tree_param":{"num_deleted":"0","num_feature":"13","num_nodes":"31","size_leaf_vector":"0"}},{"base_weights":[-2.6052448E-4,-1.117521E-3,2.5609016E-2,-4.3012088E-4,-1.0974884E-2,1.29566435E-2,4.8809053E-4,9.3145174E-4,-1.578258E-2,-3.6343661E-4,8.528777E-3,6.7174095E-3,-2.7176071E-2,3.6735535E-3,-1.9079208E-3,1.6909663E-2,-1.0599409E-3,-6.697246E-3,1.7615557E-2,-5.8297854E-4,1.9055367E-2,-1.2252546E-2,-5.605404E-4,2.4297975E-2,-8.179665E-4,1.3497353E-3,-4.6482086E-3,-3.1512738E-3,-3.6478043E-4,9.776115E-3,6.345749E-4,7.8837277E-4,-5.2831653E-3,8.7518693E-4,7.666479E-3,3.0289413E-3,-5.2851194E-4,2.6467324E-3,8.699548E-3,-2.525711E-4,-2.2574617E-3],"categories":[],"categories_nodes":[],"categories_segments":[],"categories_sizes":[],"default_left":[0,0,0,0,0,0,0,0,0,0,0,0,0,0,0,0,0,0,0,0,0,0,0,0,0,0,0,0,0,0,0,0,0,0,0,0,0,0,0,0,0],"id":43,"left_children":[1,3,5,7,-1,-1,-1,9,11,13,15,17,-1,19,21,23,25,27,29,31,33,-1,35,37,-1,-1,39,-1,-1,-1,-1,-1,-1,-1,-1,-1,-1,-1,-1,-1,-1],"loss_changes":[4.8395316E-3,5.1282207E-3,2.8809295E-3,4.362626E-3,0E0,0E0,0E0,1.8919357E-3,2.9221151E-2,1.035795E-3,2.268058E-3,2.164704E-3,0E0,3.022875E-3,6.2721586E-3,2.2424273E-3,3.001763E-4,1.3329898E-4,1.7875722E-3,2.069203E-3,9.743534E-4,0E0,1.5154851E-3,5.4433616E-4,0E0,0E0,9.22099E-5,0E0,0E0,0E0,0E0,0E0,0E0,0E0,0E0,0E0,0E0,0E0,0E0,0E0,0E0],"parents":[2147483647,0,0,1,1,2,2,3,3,7,7,8,8,9,9,10,10,11,11,13,13,14,14,15,15,16,16,17,17,18,18,19,19,20,20,22,22,23,23,26,26],"right_children":[2,4,6,8,-1,-1,-1,10,12,14,16,18,-1,20,22,24,26,28,30,32,34,-1,36,38,-1,-1,40,-1,-1,-1,-1,-1,-1,-1,-1,-1,-1,-1,-1,-1,-1],"split_conditions":[1.619026E1,1.6181473E1,7.394199E-2,2.23E2,-1.0974884E-2,1.29566435E-2,4.8809053E-4,1.6059574E1,1.6091278E1,1.5286749E1,-1.8369701E-16,1.60242E1,-2.7176071E-2,1.5150432E1,1.5322099E1,1.6099047E1,6.091589E-2,1.6097166E1,1.6099512E1,1.5122153E1,1.5112261E1,-1.2252546E-2,1.5388442E1,5.8182236E-2,-8.179665E-4,1.3497353E-3,1.72E2,-3.1512738E-3,-3.6478043E-4,9.776115E-3,6.345749E-4,7.8837277E-4,-5.2831653E-3,8.7518693E-4,7.666479E-3,3.0289413E-3,-5.2851194E-4,2.6467324E-3,8.699548E-3,-2.525711E-4,-2.2574617E-3],"split_indices":[6,6,12,1,0,0,0,10,8,6,5,8,0,10,6,6,12,6,6,11,7,0,6,12,0,0,1,0,0,0,0,0,0,0,0,0,0,0,0,0,0],"split_type":[0,0,0,0,0,0,0,0,0,0,0,0,0,0,0,0,0,0,0,0,0,0,0,0,0,0,0,0,0,0,0,0,0,0,0,0,0,0,0,0,0],"sum_hessian":[2.16E2,2.1E2,6E0,2.07E2,3E0,3E0,3E0,1.91E2,1.6E1,1.64E2,2.7E1,1.3E1,3E0,4.5E1,1.19E2,1.4E1,1.3E1,6E0,7E0,3.6E1,9E0,3E0,1.16E2,1E1,4E0,5E0,8E0,3E0,3E0,3E0,4E0,3.1E1,5E0,3E0,6E0,1.1E1,1.05E2,3E0,7E0,4E0,4E0],"tree_param":{"num_deleted":"0","num_feature":"13","num_nodes":"41","size_leaf_vector":"0"}},{"base_weights":[-2.477356E-4,-1.9800197E-3,1.105052E-2,-1.36842E-4,-2.6157834E-2,4.8839864E-3,1.4511109E-2,8.4523094E-4,-2.5370598E-2,1.4724414E-2,-3.0755997E-4,-5.270987E-3,2.2032713E-3,9.880257E-3,-2.319982E-2,6.4576627E-3,2.5248528E-4,-2.3990497E-3,4.2034783E-3,5.58391E-3,-1.1739685E-2,7.015157E-3,1.6037843E-3,7.607142E-3,-1.3516904E-3,1.3794994E-2,-4.901934E-3,-1.0381937E-2,-6.005976E-3,6.7132604E-3,9.7443575E-5,3.302765E-4,3.7775803E-3,5.5399626E-3,6.513119E-4,-4.209137E-3,-8.1332756E-4,4.427955E-3,-5.1846786E-4,-1.2902612E-3,1.3482145E-3],"categories":[],"categories_nodes":[],"categories_segments":[],"categories_sizes":[],"default_left":[0,0,0,0,0,0,0,0,0,0,0,0,0,0,0,0,0,0,0,0,0,0,0,0,0,0,0,0,0,0,0,0,0,0,0,0,0,0,0,0,0],"id":44,"left_children":[1,3,5,7,-1,9,-1,11,13,15,17,19,21,-1,-1,-1,-1,-1,23,25,27,-1,29,31,-1,33,-1,-1,35,37,39,-1,-1,-1,-1,-1,-1,-1,-1,-1,-1],"loss_changes":[4.2689582E-3,2.9672833E-2,6.437648E-3,4.630782E-3,0E0,1.3327915E-3,0E0,1.5067059E-3,2.375438E-2,8.3165197E-4,6.5797335E-4,2.3827164E-3,1.8417249E-3,0E0,0E0,0E0,0E0,0E0,3.899897E-4,2.5656314E-3,2.5454946E-3,0E0,1.1153545E-3,2.7802662E-4,0E0,5.0292676E-4,0E0,0E0,4.3787726E-4,2.267039E-3,2.2044824E-3,0E0,0E0,0E0,0E0,0E0,0E0,0E0,0E0,0E0,0E0],"parents":[2147483647,0,0,1,1,2,2,3,3,5,5,7,7,8,8,9,9,10,10,11,11,12,12,18,18,19,19,20,20,22,22,23,23,25,25,28,28,29,29,30,30],"right_children":[2,4,6,8,-1,10,-1,12,14,16,18,20,22,-1,-1,-1,-1,-1,24,26,28,-1,30,32,-1,34,-1,-1,36,38,40,-1,-1,-1,-1,-1,-1,-1,-1,-1,-1],"split_conditions":[1.6097166E1,1.6091278E1,1.6126558E1,1.6186394E1,-2.6157834E-2,-5E-1,1.4511109E-2,1.51033E1,1.5957663E1,1.615918E1,3E0,6.550598E-2,3.3E1,9.880257E-3,-2.319982E-2,6.4576627E-3,2.5248528E-4,-2.3990497E-3,1.6144533E1,1.5035794E1,6.957083E-2,7.015157E-3,2E0,1.605129E1,-1.3516904E-3,4E0,-4.901934E-3,-1.0381937E-2,1.5084027E1,1.556136E1,1.559575E1,3.302765E-4,3.7775803E-3,5.5399626E-3,6.513119E-4,-4.209137E-3,-8.1332756E-4,4.427955E-3,-5.1846786E-4,-1.2902612E-3,1.3482145E-3],"split_indices":[8,8,9,6,0,5,0,8,8,8,2,12,1,0,0,0,0,0,7,8,12,0,2,6,0,2,0,0,9,10,10,0,0,0,0,0,0,0,0,0,0],"split_type":[0,0,0,0,0,0,0,0,0,0,0,0,0,0,0,0,0,0,0,0,0,0,0,0,0,0,0,0,0,0,0,0,0,0,0,0,0,0,0,0,0],"sum_hessian":[2.16E2,1.88E2,2.8E1,1.85E2,3E0,2.5E1,3E0,1.79E2,6E0,8E0,1.7E1,3.2E1,1.47E2,3E0,3E0,5E0,3E0,6E0,1.1E1,1.2E1,2E1,3E0,1.44E2,8E0,3E0,9E0,3E0,3E0,1.7E1,3.2E1,1.12E2,4E0,4E0,6E0,3E0,4E0,1.3E1,1.6E1,1.6E1,5.6E1,5.6E1],"tree_param":{"num_deleted":"0","num_feature":"13","num_nodes":"41","size_leaf_vector":"0"}},{"base_weights":[-2.7039525E-4,-1.2343494E-3,1.7894052E-2,-1.829138E-4,-1.6364694E-2,5.6152344E-3,1.1393452E-2,-8.845854E-4,8.376161E-3,3.681908E-3,-1.233244E-3,3.075651E-4,-1.5608279E-2,-5.482298E-4,6.7120465E-3,-2.3098541E-2,6.154696E-3,5.814875E-4,-6.343877E-3,1.127255E-2,-4.6708244E-3,-7.538796E-4,1.2704849E-2,-6.713727E-5,8.3446745E-3,-5.645575E-3,-5.6506565E-4,1.74284E-4,4.823867E-3,5.759955E-4,-3.0281784E-3,5.8184625E-3,8.515835E-4],"categories":[],"categories_nodes":[],"categories_segments":[],"categories_sizes":[],"default_left":[0,0,0,0,0,0,0,0,0,0,0,0,0,0,0,0,0,0,0,0,0,0,0,0,0,0,0,0,0,0,0,0,0],"id":45,"left_children":[1,3,5,7,-1,9,-1,11,-1,-1,-1,13,15,17,19,-1,21,23,25,27,29,-1,31,-1,-1,-1,-1,-1,-1,-1,-1,-1,-1],"loss_changes":[3.8216915E-3,1.1593801E-2,2.4994453E-3,4.0474534E-3,0E0,5.684841E-4,0E0,3.5153723E-3,0E0,0E0,0E0,1.0231313E-3,2.051329E-2,1.0840169E-3,1.1947078E-3,0E0,7.13218E-4,3.0546377E-3,1.4668679E-3,8.1297196E-4,2.6957865E-4,0E0,4.0698308E-4,0E0,0E0,0E0,0E0,0E0,0E0,0E0,0E0,0E0,0E0],"parents":[2147483647,0,0,1,1,2,2,3,3,5,5,7,7,11,11,12,12,13,13,14,14,16,16,17,17,18,18,19,19,20,20,22,22],"right_children":[2,4,6,8,-1,10,-1,12,-1,-1,-1,14,16,18,20,-1,22,24,26,28,30,-1,32,-1,-1,-1,-1,-1,-1,-1,-1,-1,-1],"split_conditions":[1.6140673E1,1.6132303E1,1.6126656E1,1.6172947E1,-1.6364694E-2,1.6167545E1,1.1393452E-2,2.23E2,8.376161E-3,3.681908E-3,-1.233244E-3,1.6059574E1,5.9067164E-2,1.6041107E1,1.6099047E1,-2.3098541E-2,1.60242E1,1.602621E1,1.5885139E1,1.6043482E1,1.7E2,-7.538796E-4,1.6117262E1,-6.713727E-5,8.3446745E-3,-5.645575E-3,-5.6506565E-4,1.74284E-4,4.823867E-3,5.759955E-4,-3.0281784E-3,5.8184625E-3,8.515835E-4],"split_indices":[9,9,7,6,0,9,0,1,0,0,0,10,12,6,6,0,8,6,8,11,1,0,7,0,0,0,0,0,0,0,0,0,0],"split_type":[0,0,0,0,0,0,0,0,0,0,0,0,0,0,0,0,0,0,0,0,0,0,0,0,0,0,0,0,0,0,0,0,0],"sum_hessian":[2.16E2,2.06E2,1E1,2.03E2,3E0,7E0,3E0,1.99E2,4E0,4E0,3E0,1.85E2,1.4E1,1.64E2,2.1E1,3E0,1.1E1,1.38E2,2.6E1,1.5E1,6E0,5E0,6E0,1.35E2,3E0,6E0,2E1,5E0,1E1,3E0,3E0,3E0,3E0],"tree_param":{"num_deleted":"0","num_feature":"13","num_nodes":"33","size_leaf_vector":"0"}},{"base_weights":[-2.2045258E-4,-1.170191E-3,1.4773149E-2,2.3005117E-4,-4.0809903E-2,-1.1380005E-3,2.3446402E-2,1.4090309E-3,-1.6746815E-2,3.0891898E-3,-2.451439E-2,9.186077E-3,2.047205E-3,5.876215E-4,2.244704E-2,-2.1839141E-5,-1.6311765E-2,-8.556736E-4,4.604578E-3,1.06124645E-2,1.1722327E-3,1.9665242E-3,-3.776959E-3,2.8786165E-4,-7.792222E-3,1.1101556E-2,1.6222E-3,1.4684201E-4,-2.1297457E-3,-2.2492843E-4,4.965673E-3,-4.0032007E-3,3.1264687E-3,-2.0562434E-3,1.2719536E-3],"categories":[],"categories_nodes":[],"categories_segments":[],"categories_sizes":[],"default_left":[0,0,0,0,0,0,0,0,0,0,0,0,0,0,0,0,0,0,0,0,0,0,0,0,0,0,0,0,0,0,0,0,0,0,0],"id":46,"left_children":[1,3,5,7,9,-1,11,13,15,-1,-1,-1,-1,17,19,21,-1,23,25,-1,-1,-1,27,29,31,-1,33,-1,-1,-1,-1,-1,-1,-1,-1],"loss_changes":[3.1073673E-3,1.1387953E-2,2.1823535E-3,4.0066573E-3,1.5475122E-2,0E0,8.642655E-4,3.218323E-3,8.179575E-3,0E0,0E0,0E0,0E0,1.0533154E-3,1.5395135E-3,2.7172948E-4,0E0,1.0651562E-3,4.5782514E-3,0E0,0E0,0E0,1.0269221E-4,1.9700609E-3,2.060325E-3,0E0,1.0275234E-3,0E0,0E0,0E0,0E0,0E0,0E0,0E0,0E0],"parents":[2147483647,0,0,1,1,2,2,3,3,4,4,6,6,7,7,8,8,13,13,14,14,15,15,17,17,18,18,22,22,23,23,24,24,26,26],"right_children":[2,4,6,8,10,-1,12,14,16,-1,-1,-1,-1,18,20,22,-1,24,26,-1,-1,-1,28,30,32,-1,34,-1,-1,-1,-1,-1,-1,-1,-1],"split_conditions":[2.019E3,2.23E2,1.6006353E1,2.0821438E0,1.6057167E1,-1.1380005E-3,1.6107273E1,1.6181473E1,1.6012646E1,3.0891898E-3,-2.451439E-2,9.186077E-3,2.047205E-3,1.59925375E1,1.5926686E1,1.3739419E1,-1.6311765E-2,1.5983212E1,1.52E2,1.06124645E-2,1.1722327E-3,1.9665242E-3,1.6105028E1,1.578039E1,1.6056425E1,1.1101556E-2,1.59925375E1,1.4684201E-4,-2.1297457E-3,-2.2492843E-4,4.965673E-3,-4.0032007E-3,3.1264687E-3,-2.0562434E-3,1.2719536E-3],"split_indices":[0,1,8,12,7,0,10,6,9,0,0,0,0,7,8,9,0,9,1,0,0,0,7,7,10,0,8,0,0,0,0,0,0,0,0],"split_type":[0,0,0,0,0,0,0,0,0,0,0,0,0,0,0,0,0,0,0,0,0,0,0,0,0,0,0,0,0,0,0,0,0,0,0],"sum_hessian":[2.16E2,2.04E2,1.2E1,1.98E2,6E0,4E0,8E0,1.86E2,1.2E1,3E0,3E0,5E0,3E0,1.8E2,6E0,9E0,3E0,1.33E2,4.7E1,3E0,3E0,3E0,6E0,1.15E2,1.8E1,3E0,4.4E1,3E0,3E0,1.09E2,6E0,1.4E1,4E0,1E1,3.4E1],"tree_param":{"num_deleted":"0","num_feature":"13","num_nodes":"35","size_leaf_vector":"0"}},{"base_weights":[-1.6202795E-4,-1.1583137E-3,1.0916816E-2,1.12180176E-4,-1.903217E-2,-1.5282631E-4,1.7975027E-2,1.0314735E-3,-1.2978701E-2,1.0740281E-3,-9.325791E-4,2.2071123E-2,1.5867234E-3,1.808657E-4,1.44701E-2,-1.41717205E-2,2.0233155E-3,3.6809922E-3,8.641434E-3,5.2497E-4,-4.398251E-3,1.1125292E-3,9.083005E-3,-1.1305619E-3,1.9537928E-3,-3.911763E-4,5.459503E-3,1.7392159E-3,-1.155138E-3,1.4041338E-4,-2.3778726E-3,4.459448E-3,-2.0694733E-5],"categories":[],"categories_nodes":[],"categories_segments":[],"categories_sizes":[],"default_left":[0,0,0,0,0,0,0,0,0,0,0,0,0,0,0,0,0,0,0,0,0,0,0,0,0,0,0,0,0,0,0,0,0],"id":47,"left_children":[1,3,5,7,-1,9,11,13,15,-1,-1,17,-1,19,21,-1,23,-1,-1,25,-1,27,-1,-1,-1,29,31,-1,-1,-1,-1,-1,-1],"loss_changes":[2.4078249E-3,1.583296E-2,1.4091211E-3,2.384156E-3,0E0,9.93983E-5,4.5485538E-4,2.112118E-3,6.7772483E-3,0E0,0E0,1.7454638E-4,0E0,9.014378E-4,2.2888288E-3,0E0,2.8455842E-4,0E0,0E0,7.7970535E-4,0E0,1.8507887E-4,0E0,0E0,0E0,9.4895554E-4,1.4049496E-3,0E0,0E0,0E0,0E0,0E0,0E0],"parents":[2147483647,0,0,1,1,2,2,3,3,5,5,6,6,7,7,8,8,11,11,13,13,14,14,16,16,19,19,21,21,25,25,26,26],"right_children":[2,4,6,8,-1,10,12,14,16,-1,-1,18,-1,20,22,-1,24,-1,-1,26,-1,28,-1,-1,-1,30,32,-1,-1,-1,-1,-1,-1],"split_conditions":[2.24E2,2.21E2,1.60242E1,2.0821438E0,-1.903217E-2,1.6070381E1,1.6107273E1,1.6126558E1,1.607262E1,1.0740281E-3,-9.325791E-4,1.6116396E1,1.5867234E-3,1.6129223E1,1.6181473E1,-1.41717205E-2,1.6010681E1,3.6809922E-3,8.641434E-3,1.6031229E1,-4.398251E-3,1.6147884E1,9.083005E-3,-1.1305619E-3,1.9537928E-3,1.6030039E1,-1.8369701E-16,1.7392159E-3,-1.155138E-3,1.4041338E-4,-2.3778726E-3,4.459448E-3,-2.0694733E-5],"split_indices":[1,1,8,12,0,9,10,9,8,0,0,9,0,10,6,0,6,0,0,7,0,9,0,0,0,10,5,0,0,0,0,0,0],"split_type":[0,0,0,0,0,0,0,0,0,0,0,0,0,0,0,0,0,0,0,0,0,0,0,0,0,0,0,0,0,0,0,0,0],"sum_hessian":[2.16E2,1.99E2,1.7E1,1.96E2,3E0,7E0,1E1,1.84E2,1.2E1,3E0,4E0,7E0,3E0,1.74E2,1E1,3E0,9E0,4E0,3E0,1.71E2,3E0,6E0,4E0,4E0,5E0,1.45E2,2.6E1,3E0,3E0,1.31E2,1.4E1,9E0,1.7E1],"tree_param":{"num_deleted":"0","num_feature":"13","num_nodes":"33","size_leaf_vector":"0"}},{"base_weights":[-1.6332882E-4,-8.969351E-3,8.259355E-4,2.3757534E-3,-1.8184878E-2,-6.43911E-4,1.19097335E-2,-1.35535E-3,5.0118687E-3,3.7677473E-4,-8.785773E-3,9.478427E-3,7.377243E-3,2.4972155E-3,-5.275488E-3,-5.761429E-3,1.5331015E-3,-2.3785115E-3,1.0544608E-2,-3.882817E-5,-3.151703E-3,1.2025272E-3,-1.600014E-2,8.997671E-3,-5.2826805E-4,7.3514665E-3,5.7253363E-3,5.383015E-4,-5.5868627E-4,-9.2481375E-3,9.442806E-3,1.2484789E-3,-2.4080992E-2,5.6188726E-3,7.633095E-3,-9.824991E-3,1.9567278E-3,9.96187E-3,6.6318514E-4,-6.5447334E-3,7.966805E-4,4.8184944E-3,-1.3502599E-3,-9.073907E-3,-3.1062127E-3,2.4633051E-3,-3.4016133E-3,-7.886329E-3,-8.6309115E-4,7.6791574E-3,1.6785887E-4,3.8215637E-3,9.919167E-4],"categories":[],"categories_nodes":[],"categories_segments":[],"categories_sizes":[],"default_left":[0,0,0,0,0,0,0,0,0,0,0,0,0,0,0,0,0,0,0,0,0,0,0,0,0,0,0,0,0,0,0,0,0,0,0,0,0,0,0,0,0,0,0,0,0,0,0,0,0,0,0,0,0],"id":48,"left_children":[1,3,5,7,-1,9,11,13,-1,15,-1,-1,17,-1,19,21,23,-1,25,27,-1,29,31,33,35,37,-1,-1,-1,39,41,-1,43,45,-1,47,49,51,-1,-1,-1,-1,-1,-1,-1,-1,-1,-1,-1,-1,-1,-1,-1],"loss_changes":[1.8977999E-3,1.3034678E-2,3.2007992E-3,1.0385439E-3,0E0,5.097833E-3,1.8190278E-3,6.5102684E-4,0E0,1.2083559E-3,0E0,0E0,1.0531711E-3,0E0,3.282566E-4,1.944393E-3,2.2051279E-3,0E0,3.2327324E-4,2.6740505E-5,0E0,1.551307E-3,1.8923793E-3,1.5796325E-3,2.6297867E-3,1.6585388E-4,0E0,0E0,0E0,1.2547493E-3,9.952006E-4,0E0,3.6388077E-4,1.2799279E-3,0E0,2.6695782E-3,2.9584148E-3,1.2420234E-4,0E0,0E0,0E0,0E0,0E0,0E0,0E0,0E0,0E0,0E0,0E0,0E0,0E0,0E0,0E0],"parents":[2147483647,0,0,1,1,2,2,3,3,5,5,6,6,7,7,9,9,12,12,14,14,15,15,16,16,18,18,19,19,21,21,22,22,23,23,24,24,25,25,29,29,30,30,32,32,33,33,35,35,36,36,37,37],"right_children":[2,4,6,8,-1,10,12,14,-1,16,-1,-1,18,-1,20,22,24,-1,26,28,-1,30,32,34,36,38,-1,-1,-1,40,42,-1,44,46,-1,48,50,52,-1,-1,-1,-1,-1,-1,-1,-1,-1,-1,-1,-1,-1,-1,-1],"split_conditions":[5.3573843E-2,2.013E3,2.18E2,1.5391705E1,-1.8184878E-2,1.6186394E1,1.5972082E1,-5E-1,5.0118687E-3,1.5101746E1,-8.785773E-3,9.478427E-3,1.5972082E1,2.4972155E-3,1.5327204E1,5E-1,1.53578205E1,-2.3785115E-3,1.6068735E1,6E1,-3.151703E-3,2.004E3,1.5021771E1,1.5490119E1,1.18E2,2.32E2,5.7253363E-3,5.383015E-4,-5.5868627E-4,1.5071898E1,2.006E3,1.2484789E-3,8.660254E-1,1.5405738E1,7.633095E-3,-5E-1,1.22E2,4E0,6.6318514E-4,-6.5447334E-3,7.966805E-4,4.8184944E-3,-1.3502599E-3,-9.073907E-3,-3.1062127E-3,2.4633051E-3,-3.4016133E-3,-7.886329E-3,-8.6309115E-4,7.6791574E-3,1.6785887E-4,3.8215637E-3,9.919167E-4],"split_indices":[12,0,1,9,0,6,7,4,0,8,0,0,8,0,6,5,7,0,8,1,0,0,7,6,1,1,0,0,0,8,0,0,5,6,0,4,1,2,0,0,0,0,0,0,0,0,0,0,0,0,0,0,0],"split_type":[0,0,0,0,0,0,0,0,0,0,0,0,0,0,0,0,0,0,0,0,0,0,0,0,0,0,0,0,0,0,0,0,0,0,0,0,0,0,0,0,0,0,0,0,0,0,0,0,0,0,0,0,0],"sum_hessian":[2.16E2,2.1E1,1.95E2,1.8E1,3E0,1.73E2,2.2E1,1.5E1,3E0,1.68E2,5E0,3E0,1.9E1,4E0,1.1E1,2.6E1,1.42E2,3E0,1.6E1,6E0,5E0,1.6E1,1E1,3E1,1.12E2,1.3E1,3E0,3E0,3E0,7E0,9E0,3E0,7E0,2.6E1,4E0,2.3E1,8.9E1,8E0,5E0,3E0,4E0,6E0,3E0,4E0,3E0,2.3E1,3E0,6E0,1.7E1,4E0,8.5E1,5E0,3E0],"tree_param":{"num_deleted":"0","num_feature":"13","num_nodes":"53","size_leaf_vector":"0"}},{"base_weights":[-1.6851908E-4,1.302882E-3,-4.6340977E-3,-5.381584E-4,8.1038065E-3,-1.673441E-2,-5.316828E-4,1.7642492E-3,-4.0256977E-3,1.2422633E-2,3.6874413E-3,2.40012E-3,-1.0674119E-2,-1.533064E-4,2.1509578E-2,-5.6638913E-3,5.1145796E-3,1.1326177E-2,-2.1351764E-3,4.01179E-4,9.955978E-3,-2.961417E-3,5.036794E-3,9.491587E-3,1.8009425E-3,-8.64284E-3,6.8182945E-3,1.4388561E-3,6.302384E-3,-6.8085194E-3,1.158317E-3,-2.414431E-3,3.4920543E-3,2.9196742E-4,1.3666698E-2,9.7235315E-4,-8.517313E-3,-9.13918E-4,1.3234485E-2,2.0165634E-3,-1.053675E-2,-2.8232576E-3,1.5118054E-2,-1.921034E-3,2.2274782E-3,-2.8709793E-3,-4.963875E-4,-1.906414E-3,5.7091713E-3,-7.156849E-3,1.7387867E-3,7.5260797E-3,-2.995491E-3,4.963589E-3,2.2114278E-3,2.9386205E-3,-8.5657666E-4,-7.826186E-3,-1.1646552E-3,1.8342973E-3,-1.3993264E-3,5.9180264E-3,1.360941E-3,-7.9273945E-3,-2.4874946E-3,2.2516968E-3,5.685282E-3,2.6196958E-3,6.446457E-4,-3.100872E-3,-5.730629E-4,2.3970224E-3,-7.156849E-4,-5.9494976E-4,3.274854E-3,-2.067089E-3,2.158356E-4],"categories":[],"categories_nodes":[],"categories_segments":[],"categories_sizes":[],"default_left":[0,0,0,0,0,0,0,0,0,0,0,0,0,0,0,0,0,0,0,0,0,0,0,0,0,0,0,0,0,0,0,0,0,0,0,0,0,0,0,0,0,0,0,0,0,0,0,0,0,0,0,0,0,0,0,0,0,0,0,0,0,0,0,0,0,0,0,0,0,0,0,0,0,0,0,0,0],"id":49,"left_children":[1,3,5,7,9,-1,11,13,15,-1,17,19,-1,21,23,25,-1,27,29,31,33,35,37,-1,-1,39,41,43,-1,45,47,49,51,-1,53,55,57,59,61,-1,63,-1,65,-1,-1,-1,-1,-1,67,69,71,73,75,-1,-1,-1,-1,-1,-1,-1,-1,-1,-1,-1,-1,-1,-1,-1,-1,-1,-1,-1,-1,-1,-1,-1,-1],"loss_changes":[1.4318703E-3,2.0577684E-3,1.1301016E-2,1.0509682E-3,4.99535E-3,0E0,5.3259493E-3,2.9944563E-3,1.8917978E-3,0E0,1.4474613E-3,7.209843E-4,0E0,1.0788455E-3,9.095266E-4,1.8809355E-3,0E0,1.3099471E-3,3.003273E-4,3.4783655E-4,3.2002386E-4,1.0573515E-3,1.2804298E-3,0E0,0E0,1.2348024E-3,1.4892545E-3,4.231017E-4,0E0,9.8021526E-5,4.4656865E-4,4.2606643E-4,5.1979185E-4,0E0,4.8886286E-6,1.0073325E-3,1.527506E-3,4.502709E-4,5.3167844E-4,0E0,1.0650135E-3,0E0,6.200292E-5,0E0,0E0,0E0,0E0,0E0,6.7343586E-5,1.4706678E-4,3.2845524E-4,4.0849613E-4,1.2070909E-4,0E0,0E0,0E0,0E0,0E0,0E0,0E0,0E0,0E0,0E0,0E0,0E0,0E0,0E0,0E0,0E0,0E0,0E0,0E0,0E0,0E0,0E0,0E0,0E0],"parents":[2147483647,0,0,1,1,2,2,3,3,4,4,6,6,7,7,8,8,10,10,11,11,